7.840002622522292963e-01
-6.595797482450095339e-01
-4.474560729387808133e-01
-8.915307390059717951e-01
5.614391938553424666e-01
-5.568038021229357870e-01
-1.792431700964662034e-01
-1.431669908034014060e+00
-2.323775837430019919e+00
-4.757497491821034985e-01
9.109370706728439071e-01
2.800071838783199096e-01
7.533850768981796842e-01
-1.258082743691355754e+00
-1.280574135177246387e+00
-1.183480336592863669e+00
7.337046257941406968e-02
-1.938984713102502422e+00
3.989662981433759747e-01
2.217376111421366924e-01
2.454988336994621823e-01
1.827629976220842278e-01
4.547709698642470322e-01
-8.886269636379966474e-01
-4.007827547301692772e-01
2.417898126549495874e+00
1.085747597875321935e+00
-1.178190208596662458e+00
1.585427366699332652e-01
-2.194342587608291428e-01
1.365345571332708285e+00
-1.560452196784630541e+00
-8.712088990150032020e-01
-3.906633237192511654e-01
1.101465682496688275e-01
-7.131719120471207152e-01
-6.526498436260992353e-01
9.442508727140596081e-01
-1.171153218552213465e-01
-1.207515167577284942e-01
4.214815964036190410e-01
-7.318130924558697847e-01
-1.313624316583922091e+00
-4.909970447471888599e-01
3.952583672631084788e-01
-2.094197290451198790e-01
-8.258197010210820421e-01
-8.904253543121235515e-01
5.886162797666057989e-01
2.310315176939863768e+00
1.351866061357648974e+00
5.023194191477596826e-01
4.645766758143371478e-02
-1.338167896465070728e+00
7.368981981408215254e-02
5.785493420064948822e-01
-7.697032419978441231e-01
1.204070700789645176e+00
5.200091970885599435e-02
1.595261083843846628e-01
1.838473569501534455e-01
2.202244090397012855e+00
3.946015266995692161e-01
7.046005802629321524e-01
1.385481645306712473e+00
-1.048332785048585958e+00
1.112437768425314610e+00
-8.117987286062906538e-01
9.382831362570573930e-01
2.910012727724868298e-01
9.529196069417430470e-01
7.647831790537032992e-01
-4.249428294755071001e-01
1.169800568104428118e+00
-8.925539182473204991e-02
1.606713743931196814e-01
-5.227536636744596343e-01
-1.119975028708089793e-01
-1.312682675819001887e-01
8.805545065925421966e-01
-1.480127401338960480e+00
-6.731320233939059872e-01
5.667973835625266243e-01
-3.912491447784230414e-01
-3.309552714916427774e-01
-1.736423936505911536e+00
4.272082173332341637e-01
-4.655674234285657187e-01
1.136119634468079731e+00
-3.272812286130923010e+00
-5.137378599915274346e-01
-1.136718891762778183e+00
1.474933380920176562e+00
8.521773779207995891e-02
-5.532110444456409676e-02
-3.169487368934093552e-01
-1.809884862041684084e+00
5.062624808833462442e-01
-1.413949349721932647e+00
2.041798916328669833e-01
-7.116440152864100810e-01
5.202345343679255496e-01
5.825279645741170409e-01
3.694246941893593594e-01
6.125522627120966179e-01
1.203843565153898787e+00
-2.033884892168624337e+00
-1.603554850532570297e+00
1.510254187240473112e+00
-1.484200855398619456e+00
-4.257796383314318422e-01
-1.147173156583325415e+00
3.062957354792827380e-01
-5.339177607427494365e-01
6.358442498239110785e-01
3.389298479822426269e-01
7.895679820100587332e-01
-8.760498891863137683e-01
-4.595142272709889508e-01
9.573546843881408641e-01
1.036140412000599920e+00
1.739844154862597803e+00
1.886796818101888373e+00
-1.004498124583101282e+00
-1.121626669069172577e-01
1.624324084310231786e+00
2.043061440468303847e+00
2.115176163611657500e+00
6.629979475780575782e-02
1.416496842427662939e+00
-1.133457790733813697e+00
3.579305422878101273e-01
-2.278729153439948696e-01
-5.578250548823991961e-01
9.587824528478493535e-01
8.182546493957443268e-01
4.257390834559800497e-01
-6.940027281179116381e-01
-5.881194501914338568e-01
9.362497490449049886e-01
6.663493528790089826e-01
-7.548945838605796155e-01
-3.710599308449289424e-01
-1.028829971264977605e-01
-7.589896077113071904e-01
4.388130858548079938e-01
3.287553272891307055e-01
2.704607723388035900e+00
-1.263585145884248195e+00
5.457360382106584140e-01
1.464371419092494797e+00
-1.481167953200712262e+00
8.438848928603867594e-02
-8.493095183922501068e-01
-5.287870516168475810e-01
-2.386009602265651175e+00
-1.462921889895120620e+00
-1.239274350206837960e+00
5.750784199891427750e-01
4.249357221237717308e-01
8.042491369502029475e-01
2.119514708249321977e+00
2.463636331422486947e+00
2.004764678681331957e-01
2.812304753008398328e-01
-9.082264706200608995e-01
-2.118821658056384005e-01
5.786950011484700562e-01
5.292551775142217974e-01
7.486537708649524392e-01
1.620187294287955160e+00
-5.973976662110744851e-01
3.118415042403235860e-01
3.736329962191383552e-02
-5.767936659018811918e-01
1.016053917728920508e+00
-9.323174332141399567e-01
-1.300423407547346866e+00
-4.571846538835994123e-01
-1.400350703528941754e+00
1.320510833123687000e+00
2.653694063108957280e-01
-7.121217465625842014e-01
-7.730605078175147860e-01
-2.090545997282007740e+00
-2.147142099311389440e+00
-7.498800830606526802e-01
-4.178460023565135351e-01
-1.013634808854513514e+00
-3.701980600714604996e-01
-1.706579445421610997e+00
7.656395232543814489e-01
-2.055164397530467313e-01
2.293059173356763125e+00
4.049740407948188015e-01
-6.466916568137138777e-01
1.952768709292664662e+00
-7.826950341821309332e-01
1.758146014960943804e+00
-6.144549439344957342e-01
-1.238770719991262537e+00
2.855457786931699382e-01
1.337510698091016970e+00
-6.311125659696973367e-01
1.050436867719735767e+00
7.163608306490419908e-01
7.224320085593689544e-01
1.006413478114467630e-01
-5.305852481857155079e-01
9.435255668940866203e-01
-1.066395436312154582e-01
1.132703064453109532e+00
-4.736424942803007521e-01
8.539123571257406509e-01
-6.807899297809641426e-02
2.421358129767753553e+00
1.105629620120375245e+00
2.339346847059081344e-02
-8.898498320022326658e-01
5.984296192494450439e-01
-5.173399340468541885e-01
1.523359883063249764e+00
-4.704497557099948657e-01
8.529608156296549781e-01
-1.550122686017433304e-01
-5.205013477665448862e-01
4.592985443039874216e-01
9.705100379915330144e-01
8.192493383086679737e-01
1.427031258606911823e+00
6.065676249499347694e-01
1.366578794883079873e+00
-5.174114470811103095e-01
5.497267579114526459e-01
4.602333737778471212e-01
-2.883859894839158056e+00
-6.023530107254144311e-02
9.449433555740248680e-01
1.223876979818128152e+00
-8.715792815042031627e-01
3.115564084131016709e-01
-6.988387137585886366e-01
-1.432029188339486003e+00
3.611247397682800786e-01
-1.850192698859185747e-01
4.903807278966552663e-01
4.505194022367960960e-01
-1.761315018452784376e+00
-1.635726315733026626e+00
-1.241831306567912074e-01
5.566745044661520758e-01
1.975763428950421785e+00
-4.000396475686182618e-01
3.758590103241344904e-01
1.902780663506209446e-01
-4.518898559563472306e-01
-1.138627802005903522e+00
-1.283382825883131240e+00
-1.250905736008815827e+00
2.056248998866375133e-01
6.984353958397084838e-01
2.255527953353198445e+00
1.914459661260196510e+00
1.825456931114884662e-01
-1.028426927190112972e+00
-5.166346346087594688e-01
1.100238470448643868e+00
5.960753815911499220e-01
4.186207979687303071e-01
1.922555973823077968e+00
3.129479071760908337e-01
-4.038174663798504427e-01
-2.488040921507193581e-01
7.286929510547646149e-01
-1.672961961183000723e-01
1.471410680729650533e+00
1.859384924108209214e+00
-2.379975703148234922e-01
1.387651409182232287e-01
-3.097497689126820289e-02
1.346802029699144532e-01
-5.914939144852451314e-01
5.841424744785170819e-01
-7.483170649440935573e-01
-1.294066213034188007e+00
-2.313797709600768915e+00
5.460646682038785560e-01
9.315687752597892057e-01
1.114481280407287889e+00
3.062112935048041384e-01
-1.494423870396162757e+00
-6.339230376721468607e-01
3.681302582841989857e-01
1.803900664644996876e+00
6.797777278194261363e-01
1.097505212644087402e+00
6.918794211258538773e-01
-1.216033641661779185e+00
-6.959631843434437304e-01
-2.992989775047877887e-01
-9.621874973183092150e-01
1.296516008191494207e-01
1.655159420347513732e+00
-1.654096029168257986e-01
-7.116445448077587388e-01
1.307078818831010514e+00
-8.053794442213673133e-01
7.880158089894823137e-01
-5.259728885304282286e-01
-1.744530950268305680e-01
1.244092927562977291e+00
-3.339248531606311410e-01
2.341028602419074622e-01
2.274842773259563522e+00
4.956367695446494137e-01
5.284213424450531216e-01
5.363350954482961480e-02
-5.321033275131179519e-01
1.347185759413898898e-01
1.446863993665314263e+00
9.964621985907927415e-02
4.327479831861110182e-01
-1.081863705028551781e+00
1.856660324501207826e-01
-4.992219682408537661e-03
-1.052014671333974194e+00
8.553641122190085433e-01
-1.306174338653680600e+00
2.281138673974124342e-01
-2.116944802255359970e-01
7.894666187095387144e-01
1.843067859333448411e+00
3.735426102407875537e-01
-6.770178451721498014e-01
-2.748309539044686556e-01
-2.815033741560985514e-01
-2.655375562922311361e-01
-1.179513062419533173e-02
1.007547643620878564e+00
4.263629373173145054e-01
1.190987417647525193e-02
-5.031888641276350826e-01
-1.651588953444956265e-01
-7.174057659678371168e-01
-2.282642342631147958e+00
6.855674511719996034e-02
1.244877810645292460e+00
-1.237598255049899176e+00
9.394193740852510022e-01
1.111979928536763085e+00
-6.686239373118288420e-02
1.217765841743415844e+00
1.807288856275418576e-01
-4.756853080713362436e-01
1.687084334636548485e-02
1.277493985285464984e-01
1.820521226003532389e+00
-1.145917383069220641e+00
1.697855297869971247e+00
-6.231250703120591039e-01
-1.920197934002434159e-01
-4.630285204290879864e-01
1.618056507042648473e+00
-5.851038810251696365e-01
-1.074583316415923251e-01
-1.123907604614690969e+00
-5.600798098580739293e-01
2.877481294083686914e-01
1.575880577044777020e+00
-3.589607518325773072e-01
-2.407399754751585519e+00
-4.775471000216970074e-02
1.607741265688010568e+00
1.360693556869565946e+00
7.400222472317952160e-01
1.559831698622006213e+00
-6.284549499114173710e-01
-5.905910704686709867e-01
-1.691793314325840680e-01
-1.586963354457002762e+00
4.861986363503519037e-02
4.432109110903070803e-01
5.239970598670210533e-01
-7.484861382634533378e-02
-1.067139088661727353e+00
-7.100175706287857880e-01
-6.553728292181899562e-01
3.764065391124227777e-01
-7.128287530776660219e-01
-2.126901596102131753e-01
-5.256935345908682056e-01
-4.945510420856604195e-01
4.287800853175365301e-01
-1.341837819282776624e-03
1.572949380538939179e+00
-3.853000297914780936e-01
-7.039977811495740090e-01
1.652383063130504315e+00
9.137074971774056253e-01
-4.511312704014937003e-01
-1.287800944789030122e-01
-6.968774198324868552e-01
-7.813842307274166954e-01
-8.172321183078928852e-01
5.531180598229158418e-01
8.738187809178076249e-01
8.437425721755091867e-01
-3.466326146569218558e-01
5.713007831060561426e-01
-1.473164275391825040e+00
1.260716589901268891e+00
-6.381676741125954511e-01
7.573395263532313182e-01
-3.078064664674466933e+00
5.796454210402062213e-01
-2.604118417456866008e-02
1.507453609029557162e+00
1.425692239654319682e+00
-5.107784462943039117e-01
1.783448822705127501e+00
1.221112341570903814e-01
9.356399048755224823e-02
8.792026879181567833e-02
8.188911487890598861e-01
7.074075062690474702e-01
1.630876520114827644e+00
-1.231672351002337074e+00
-8.223986551373058118e-01
3.409244034876482976e-01
-4.818561084709108155e-01
7.183331866059228243e-01
-1.808543226524690350e-01
-7.109053485473587619e-01
-1.128429697056308800e+00
5.977892770634272157e-01
-6.697992648051549480e-01
1.261161040902189834e+00
-9.882570745124197309e-02
-5.360647602406310996e-01
-7.794481680438362925e-02
5.737735771644182359e-01
-9.351556634470231666e-01
2.595375698773807471e-01
1.096358081646510996e-01
-4.876553498397033226e-01
-1.338263790962659128e+00
-9.889294165435337236e-01
-1.032535701716082999e-01
9.227987127964452085e-01
-1.333691669903328769e+00
1.055553643876945502e+00
-1.213759598639184922e+00
4.158005392202022144e-01
-3.308187522410620529e-01
-1.432040470480071104e+00
-5.107351645269205820e-01
-2.494338601329378069e-01
-1.375769799789291703e+00
-2.818663785063278415e-01
-3.293433580398292260e-01
5.287964786190287869e-01
-5.288624782137495428e-01
1.465192632723592570e-01
7.112474697514216126e-01
-1.416234088246052236e+00
6.567950163515446915e-01
-1.976756458649286674e-01
-8.001541842532503557e-01
-1.099017578019714780e-01
-2.276078902814058669e+00
-8.616133456482549802e-02
-1.267675343211015493e+00
-1.047377451698885187e+00
-7.213798927819980999e-01
6.648543603602387331e-02
6.699108464114359451e-01
-2.521931219793043244e-01
-4.436722124917207299e-01
9.862932535406229162e-01
2.189628075341887026e-01
1.035419613293197427e+00
-2.417193506457704810e+00
9.462101174430803674e-02
-9.951325878128769453e-01
2.467824948205332991e-01
1.154457046924968200e+00
-1.910334590717488901e+00
-7.467627422760971800e-01
3.233499085864806610e-01
4.081227331056491714e-01
-8.926507077291808701e-01
3.618404031393185893e-01
-9.077132749934362088e-02
-4.465270163502104706e-01
2.462042977827783585e-01
-1.329323650051694450e-01
-2.242680125645555023e-01
1.595349328290959212e+00
2.236543430441063074e-01
8.920246197667596189e-01
-1.090594070040760144e+00
-2.850341494833656952e-01
4.221273743916955090e-01
4.715086861860955936e-01
2.035229507396476289e-01
-2.593309576721145038e-01
1.531294432892270308e-03
-1.539584367227023742e+00
3.494017299516811725e-01
3.196484583481257746e-01
1.746518558341495723e-03
-6.778277225027495856e-01
4.816056497976135553e-01
-3.217681724589925296e-01
1.214327859794571474e+00
2.767448838528562050e+00
-8.936865325126107651e-01
3.559190325541586875e-01
-6.771269022385980607e-01
3.079495759280108103e-01
1.170634438780656650e+00
3.333200715399968761e-01
-6.002976432582801669e-01
2.284747248572391587e-01
7.365662384779125826e-01
-3.891612617367873894e-01
-5.405483393425895011e-01
2.160964001439596327e+00
1.202736893536108909e+00
3.690566597412777705e-01
5.465979883777963844e-01
1.191343890342046574e+00
1.192300140996488400e-01
1.187085400557680970e+00
3.210091800234861625e-01
-8.934866298383274674e-02
-9.614343748586483551e-01
-8.502353840915223282e-01
-5.575394116382172971e-01
3.194057701002836591e+00
-8.700210043315282915e-01
5.541694906413934252e-01
-2.604518774904920786e+00
1.698148424651419131e+00
-5.320702093827843759e-01
-3.653018511270900159e-01
-1.861002647428157131e+00
3.400731604663957408e-01
-1.036396319244379215e-02
-1.497498997915494012e+00
-5.599473184263921606e-03
1.684443151578521647e+00
-1.018315559743106391e+00
1.302289670705096380e+00
-1.342123490728519775e+00
-4.077714488392449321e-01
9.058311359119941564e-01
-3.748283920392274093e-01
-1.577246270551386997e+00
-5.007986141026334881e-01
8.623049338992728741e-01
-5.943987736730611537e-01
5.474516401312369274e-01
-1.120880216025698761e+00
1.413358978941328559e+00
1.837973247377645558e+00
2.515737020285612746e-01
1.169415208824170715e+00
1.741777482131832977e-01
1.654707263357231006e-01
7.832965474583132581e-02
1.819909667523292862e-01
-1.481654218869926480e-02
-1.237671426900929461e+00
-1.425105227519973594e+00
-1.103902993833715707e+00
7.815583445449407751e-01
-1.715635972482550287e+00
1.113180694204349619e+00
1.342534066691948524e+00
-2.289245553325373050e-01
-6.032779889439943144e-01
-1.098266312513659804e+00
-1.304595558842799985e+00
-5.993729737957884662e-01
-5.956541125112846391e-01
-2.335656971489938061e-01
-1.721865403863881983e-01
2.947268379410454830e-01
-5.215533544426722568e-01
-1.169517831429733867e+00
-2.079562371085867500e+00
1.168311196767205296e+00
-4.729393241698428008e-01
-6.551043988121338923e-01
-8.186464460111124442e-02
6.219520924698741515e-01
1.012857879193733046e+00
-1.807047785574026566e+00
5.735995881220874448e-01
4.014188678595061455e-01
-1.306303161389254619e+00
-1.575274529425468167e-02
-5.643223527462581934e-01
-8.506258862316999902e-01
4.912597418884852574e-01
-1.015108319464163716e-01
2.142109738880931258e-01
5.776779652046856173e-01
4.876366690519884917e-01
-9.278160076341138707e-01
1.096299046069379779e+00
-3.142932601824509620e-01
1.704612125189713112e-01
3.037340638937257586e-01
-1.202955246001133682e+00
-6.802502212573469098e-01
8.757445764687423750e-01
-2.408586947191428129e-01
-4.074785771956752067e-01
5.631429472161278982e-01
-1.121303209655268418e+00
3.191031570634326187e-01
-2.313059268740558672e+00
7.379132344282333111e-01
-7.283396833982472840e-01
9.501681824198772164e-01
-1.302164556398953899e+00
7.461774350704687420e-01
-7.755967310466972409e-01
7.195854977496023430e-01
6.606808439047834325e-01
-2.013975391275929727e+00
-5.593355253954688244e-01
7.873478706660038684e-01
1.507641393030276777e+00
1.323392170570184823e-01
6.944826617317607920e-02
6.676276291955572928e-01
-1.664574704696479834e-01
-2.019764498892560878e-01
1.529752170535115807e-01
3.436176075721409928e-01
-8.947325245093441515e-01
-6.470535923194278283e-01
-1.742414002737211920e+00
9.831438832908370729e-02
-7.362975326237273244e-01
1.852731517623979585e+00
-1.052550964002589851e+00
-6.002489436495490605e-01
3.213626032966233614e-01
8.884098057571996332e-01
7.078149926689610849e-01
-5.506674855290835668e-02
-6.567066744032278303e-01
7.319523188241323919e-02
-1.361341543991211323e+00
-9.074042362944229057e-01
9.019160072870757716e-01
3.905902137496435945e-04
-2.927360846951748918e+00
3.132973660515895875e-01
-7.622465028525294839e-01
-1.693858350149615166e+00
9.713797647942113977e-01
-4.954212639424847575e-01
2.025514243773156142e+00
-8.732442624304248557e-01
-1.017141201720906246e-01
3.107163569152001092e-01
-1.842409845790523581e-01
-1.609518715499685282e+00
-6.692586837888460094e-01
1.144600886912660709e+00
-2.142813999141255088e-01
8.670879045700884136e-02
2.017925074864629353e-01
6.590346802503158630e-01
-1.402494403553328217e+00
-1.011327412728488140e+00
-9.957841976095767322e-02
-5.895084151008633810e-02
-5.018065012576795603e-01
-1.941130623797427401e-01
-5.487401512920339064e-01
1.485740381403758192e+00
1.987869239848911729e-01
-1.010872834579893409e+00
-1.188404787074208269e+00
-5.985874091383402984e-01
8.253709258663721737e-01
-9.718350821805574746e-01
-3.386412359782302595e-01
-1.548602813932670408e+00
1.371293491322029823e-01
-9.194316367539698831e-01
-4.896655306849999612e-01
2.356911746077515968e+00
5.743782681253711830e-01
-8.475079841656784074e-01
1.626578838607549038e+00
6.334415707185336863e-02
-3.593664342585204396e-01
3.312359312342195161e-01
2.726559939900831120e-01
-1.012190663009201463e-01
1.375692031066279686e+00
3.460217436986645079e-01
5.524826759039495050e-01
-1.325452803457241924e+00
1.997195534579549736e-01
-2.167883363746649916e-01
1.558859022988740538e-02
8.852466127389284692e-03
-1.849252570695169087e-02
1.229488485800707576e+00
-6.896061327313890432e-01
1.665231178618773455e+00
-2.433547749306733399e-01
-1.357612251356046795e-01
-6.706702562541921875e-01
1.018258429289354249e-02
6.216609344870388520e-01
-5.644488578211571683e-01
-2.121417406727482469e+00
5.748797442426359372e-02
6.216875612837253762e-01
-8.408929664965822948e-01
-1.018630428801059473e+00
5.254626799995649744e-01
-6.806841865352804000e-01
-9.856043345797598221e-01
5.638662145525105140e-01
5.949763558073689618e-01
-1.319129676998368472e-01
-1.035004553992405318e+00
-1.769064945684104273e-01
-8.387715582923281898e-01
2.871561461547303962e-01
3.016432884888176069e-01
2.015247723131986746e+00
-2.275951421735434632e+00
-1.283976701000024478e+00
1.841760835990589040e+00
-2.052197073657914039e+00
-6.023665179107395851e-01
1.192694763319055440e+00
-3.398712991886376766e-01
1.767212346840198123e+00
6.800261850991147217e-01
5.768136926368170325e-01
3.298053372229623609e-02
-5.582237674038282860e-01
6.199147826653335080e-01
1.345325097121235380e+00
5.375736318815207415e-01
1.194995000620850512e+00
5.292271170876203801e-01
-1.908031948756105101e-01
-1.052558994615429677e+00
-1.068753885041194396e+00
-1.700646120180084431e+00
-1.996336948245907572e-01
1.151452140661367585e-01
9.211141066752590589e-01
7.185329301081861963e-01
8.497550261598629806e-01
-6.732244951013744982e-01
-1.079622083403829036e+00
2.443381447690975150e-01
2.070790011925031371e-01
2.934150266640643268e-01
-1.868908719197421853e-01
2.348910747641223817e-01
9.309730084807407158e-01
1.019123971988589616e+00
6.873637178000618908e-01
6.161164758161579158e-01
9.932397344471245448e-01
-1.698049270106970043e+00
4.992645896738892586e-01
-8.491298551066475686e-02
9.585081068666014004e-02
-8.697901786869410845e-01
-1.771335696501604939e+00
-7.067939300080119391e-01
6.107647901385107048e-01
-1.442373230844195275e-01
9.375240998330964803e-01
8.112584807923342023e-01
8.170651214972730614e-01
-1.842617036787008944e+00
1.413110028110132310e+00
-1.087674500390357402e+00
-5.870094719730352129e-01
5.559563617781876355e-01
-1.117380370172132320e+00
8.077136977457949341e-01
-2.473609889423678543e-01
1.400516330986570468e+00
-3.478957784578694534e-01
1.029898368817727256e-01
-1.651202479293870373e-01
8.059703085853866522e-01
-1.710388715291851103e+00
1.054284227585027711e+00
1.123936695310537415e+00
3.362591745073220117e-01
-1.460136292784341316e+00
-2.185818944213541448e-01
1.932136499380550099e-01
5.340532537299621518e-01
1.736951125623654724e-01
-9.464434198614254390e-01
-4.804918136730562672e-01
-7.618640573699835272e-01
9.722159014609775551e-02
-5.716677272054174752e-01
7.577185942822000086e-01
1.036069161505057901e+00
-4.848771455905909189e-01
1.096266737781770084e+00
-1.550594920811196431e+00
-7.663613718888536708e-01
-6.097581345581734036e-01
-1.025949334786500078e+00
1.517121042197051795e+00
5.577366759631738335e-02
7.470991199377381431e-01
1.215746342079596226e-01
-6.854622614565436534e-01
-2.986013288480290351e-01
-1.440392408492064735e+00
1.406165938007210681e+00
8.277476722272229803e-02
5.703749828493879237e-01
5.311409367392133651e-02
-1.024125022517391875e-01
6.717031287376651338e-01
7.027837711747084715e-01
1.096596755631805031e+00
-2.064754876195111499e-01
2.355583249157438275e-01
2.096510171306237513e+00
1.070530238085853625e-01
8.066946876354892382e-01
-4.843405275593078985e-01
-2.687728295315534033e-01
-1.321049414813602496e+00
-2.070957748000996912e-01
3.723251371192826120e-01
-4.652753646218949490e-01
1.980931641975856583e-01
-2.422647773446271191e-01
-5.989626389421288666e-01
-3.259385009453827364e-01
1.201851286465439372e+00
-7.965668290438480126e-01
6.027530801643438130e-01
3.780435516523206196e-01
6.770365423956953288e-02
4.304232407781719005e-02
1.044476836300424427e+00
2.158898423223758911e+00
-1.794306010302960441e+00
8.398444718239267415e-02
3.633309697930729998e-01
-5.079687963851476917e-01
-1.978043049943019049e-01
-8.094471692506680638e-01
-7.473333858579789268e-01
4.271531932993833380e-01
-5.821623072855025560e-01
-7.459406614912926781e-01
-2.902032187724943868e-01
8.172944494758342671e-02
-1.956960408796161843e+00
2.353585243302565022e+00
7.620174179601593156e-01
-1.231553394490837228e+00
-7.761022410176273700e-01
1.852577305138334296e-01
1.056254856960627819e+00
1.515239255873482183e+00
-2.229986146148643933e-01
-9.220012770192375084e-01
6.982783426399979954e-02
1.012737018170320580e+00
-1.753916002810760322e+00
2.105316506800889886e+00
6.689797665432568596e-01
-1.231079532893864931e-01
-2.943873407006738496e-01
7.883791094493153295e-02
-9.174268772536645078e-02
-2.173464510620728707e-01
-5.704116523668331107e-01
1.096514030282081054e+00
1.606415019719401038e-01
-6.644966622610257168e-02
-3.690000347569669104e-01
6.858798165573839478e-01
-1.398474702832395833e+00
1.393776389661245174e+00
-3.177202371585863272e-01
-8.508486025734893765e-01
-5.602391047071397789e-01
-2.840097807722508638e-01
-1.755243839023257424e+00
-2.631462745038419815e-01
-1.439752480443099891e+00
-1.226835371658294926e+00
1.106333888167317481e+00
4.021685815635130945e-01
7.387833406289593396e-01
1.221563811818831974e-01
1.032671938702835135e+00
3.858360346665745677e-01
-8.229560593246211253e-01
-8.079615052057883551e-01
1.877549440388244895e+00
-1.743904941066660053e+00
3.712985827254373650e-01
8.440830917037580594e-01
1.329582551606574015e+00
1.393096304567131849e+00
1.166043401283838765e+00
-9.944779439879807281e-01
-3.310073454609899213e-01
-1.744475080594087180e+00
1.956930930220713627e+00
4.360807559553943058e-01
4.480373578649881061e-01
9.923834918556334594e-01
-6.999746437620659734e-01
2.981049077791272373e-01
-8.367794406208205471e-01
6.072046781840944041e-01
3.892861443847202563e-01
-1.909323009099628543e-01
-5.559962385568165688e-01
-2.882813982985538148e-01
-1.605338891896120446e+00
5.867021370691680726e-01
-1.104357481239898631e+00
-4.582168985024451802e-01
7.673680226339110177e-01
-1.297027513942033528e+00
-6.414586422186940862e-01
6.663179774398763078e-01
1.745873669069496759e-01
-6.703099121526759352e-02
9.977473588135421512e-01
-4.395623120097418290e-01
-8.291140028637249415e-01
3.471011750172621757e-01
-1.293357499608177585e+00
1.854411278834760812e-01
-1.955014304373628109e+00
1.579467701173488392e-01
-4.618638671847384303e-01
-2.414242819755041680e-01
1.102552817528417606e+00
-2.656888515609042489e+00
-5.043348892237414782e-01
-4.432593439548861980e-01
1.885424389863968320e-01
4.754874133111134937e-01
-7.872818172145419346e-01
1.141355986501025210e+00
-6.303091630811012980e-01
3.790368205020398507e-01
1.920401686906967609e-01
6.917094501861240641e-01
-8.128352651636343573e-01
-6.694407962661659273e-01
-1.598016894977767999e+00
-1.988232939288822720e+00
7.465484143573485332e-01
-2.188156892839168588e+00
-9.820411786176375113e-01
2.231829727770292746e-02
2.355909809253046827e+00
8.667678989417749724e-01
-9.929950781558695150e-01
6.987214168222070088e-01
5.207279568307798118e-02
2.893771006340524199e-01
-1.268537956427494784e+00
5.351175266770049621e-01
-1.107404923947945763e+00
1.304806706857871035e+00
-5.992488769629945589e-01
1.237863689681132140e+00
-1.844322253779575815e+00
-1.018357625055721138e+00
4.266843985066869349e-01
3.500977935400910179e-01
-5.235094526505804646e-01
-2.099868544202724945e-03
-1.542715529203546376e+00
-6.894735934593305693e-01
-8.486059860258980958e-01
-2.356938996557100818e-01
2.106714858490650877e-01
-1.935023829681046248e-01
8.817231292434212220e-01
3.336034355689654896e-01
6.669040517261296541e-01
3.279446266658129217e-01
-1.757814064890271144e+00
1.434936843362447423e+00
-7.222460657103059178e-01
2.268179295953214880e-01
-1.320836416313672990e+00
6.375934164571166463e-01
-1.515401479469145496e+00
9.622265557070474040e-01
-6.104391371989875692e-01
-1.999238751323759167e-01
-1.299260402635634915e+00
7.376481992601482407e-01
-1.018625826698053460e+00
-1.200945504896460403e-01
-5.248614478897917213e-01
3.810063299317211216e-01
-1.055424991615150132e+00
-8.549329421704960907e-01
9.951968188156621320e-01
6.684457048268949153e-01
5.936803879711001208e-01
-1.688216710003912491e+00
-1.146466285212511593e+00
-8.070346453098220518e-01
2.554879585944095921e-01
2.726771516872384948e-01
5.031266784050635321e-01
3.897643172297155512e-01
-4.143536248249649750e-02
1.677143189675164292e+00
1.954280104379885863e+00
9.547747021601694917e-02
-9.663655319894680351e-03
-2.428172757977864193e-01
4.544718114302048195e-01
-6.603846878401264942e-01
-3.596226702578808054e-01
-1.447752780258972638e-01
-7.496370258286167987e-01
-2.127769842016803692e-01
-2.008278497551509167e-01
9.706532279888221426e-01
1.326628407765484852e+00
1.146647868320336938e+00
6.231550397864425994e-01
-3.132205939090232372e-01
5.288486391436730827e-01
-1.282992587753309932e+00
-1.965022202683869568e-01
1.895884072135684828e-01
5.946665780905048271e-01
-1.083179845192430824e+00
-5.295479652592153252e-01
1.259719705556169578e-01
-2.615339800120678682e+00
5.737406819943551284e-01
9.111176859573998088e-02
9.093065987429708175e-01
1.274926885564203083e+00
3.589485531096411886e-01
-3.443520200311898094e-01
7.386028024244283285e-01
-4.257777305798655931e-02
-7.358689043952394426e-01
2.479809964342468906e-02
-5.694276147883150507e-01
1.445805872408822967e+00
-4.074509942985215516e-01
1.058761926904187911e+00
-1.355541016079875316e+00
-4.560154568504218298e-01
7.922258239143212810e-01
4.964470131470138936e-01
-1.697390910204889192e+00
-1.248169369346192825e+00
1.168988048450415734e-01
-1.504985313029913119e+00
7.588182199663762173e-01
-4.697260210686284854e-01
1.502232790395212847e+00
-8.673393880045519033e-01
9.475263166884191346e-01
-6.727528567110387936e-01
1.859763406622285675e+00
4.683222863832149918e-01
4.219403874040890678e-01
3.981409162845285232e-01
1.104738496721631602e+00
-8.028682960319598605e-01
9.577997888635981782e-01
-1.148951206746658071e+00
-4.758866570752511294e-01
1.280738252800180499e+00
8.938392678107264233e-01
-9.680674809963241145e-02
-1.188994514566960259e+00
-3.513640314094543804e-01
1.950191976751486367e+00
-2.382689495530848287e-02
-1.138735087765793408e-01
3.623384991300686586e-01
3.846507404207495373e-01
-4.500827605205124926e-01
8.123837243595743995e-01
1.164147343978624072e+00
-1.720768910497567361e-01
-1.404765858134686907e+00
-8.967418616178831625e-01
-1.458837503126871438e+00
9.579296030289790043e-01
-8.464563647020387771e-01
-1.010080363756801436e+00
-5.645323645783015959e-02
-6.508079206406269801e-01
-1.173918643539380913e+00
3.074476944292489078e-01
-4.326539990734534213e-01
-3.870582038571907524e-01
2.829128747277031564e-01
-7.979917571015434641e-01
1.707853999983788285e+00
4.181024592564589470e-01
-4.242792768763286038e-01
8.502372428072059451e-02
-1.202165721285103905e-01
9.415993495410672487e-02
-4.644145277827669838e-01
8.346095920991523087e-01
7.377327344223323369e-01
4.080995280820319815e-01
7.053740955016795863e-03
4.267051844739634947e-01
1.430427728649368291e+00
1.136745164850140988e+00
-1.022718000485963730e-01
6.214827522533221404e-02
2.288662874185987961e-01
2.773522744073620427e-01
6.933362442501170841e-01
-1.633056803115416233e+00
-1.331450759689401853e+00
-1.678869384717081470e+00
-1.079543076186713080e+00
-7.969017877599162691e-01
-1.604435815027832057e-01
1.184403417689162907e+00
8.434884828783938415e-01
9.516326610669069153e-01
-2.086860701394323225e+00
5.473384450516862593e-02
2.547412185883345392e-01
-2.983502620500946279e-01
-8.571445632657744840e-01
5.960411233527915797e-01
8.400970457937400049e-01
-2.775028401042263781e-01
-5.801385585297043068e-01
-1.733981303428129728e+00
3.260531951026135022e+00
-1.332293043546496802e+00
-1.435620743918797571e+00
-3.493967498493189550e-01
5.887881929161314920e-01
-6.265401110043046229e-01
-1.268897411886695359e+00
-1.063434258967450585e+00
1.227145511093279129e-01
1.143833727158652724e+00
-3.266909221315100531e+00
9.868082958751910050e-02
1.481306910383025088e-01
-7.566668185562247517e-01
-1.642197074709031701e-01
4.018088730884218363e-01
2.446544678443309806e-01
-5.652864165060625945e-01
-1.378356314526693049e+00
1.378606350431681449e-01
6.749045826708185425e-01
-1.007958628734957118e+00
-1.591023104122156973e+00
-7.589238478269969002e-02
1.929930281609849807e+00
3.957196152694228419e-01
2.623647790331974927e-01
4.533513757807772215e-01
1.787595173295073669e+00
3.344687172005136322e-01
1.174021694319647091e+00
-4.164592345833378340e-01
7.078681960553971919e-01
-6.374416962498210548e-01
-1.228140168181577563e+00
-5.877051460929453297e-01
1.737657945150741456e+00
-9.965253003339673565e-01
1.236689242958087576e+00
-2.821651466224519567e+00
8.413939355774276985e-01
-1.466626624604347784e+00
1.324886171773166366e+00
1.112537565242715631e+00
-9.518007213493672181e-01
8.855505332400974705e-01
1.968021734072157081e+00
1.816540786308864508e-01
7.088077007082754788e-02
2.715581108422958634e-01
8.159016461209205318e-01
-2.961069255600679018e-01
1.459246681513685528e+00
2.742261928213251543e-01
5.248367382341628806e-01
1.260683727026656320e-01
1.497970533185365161e-01
4.279789442383540310e-01
-8.871817288982896121e-01
-5.775006246133411736e-01
-5.909046479015602760e-01
4.862096947907763034e-01
1.289318377937249238e+00
5.520692570775908026e-01
-7.291596718375178421e-01
1.404081602293127506e+00
1.207884396978623487e+00
6.490606295966923067e-01
4.067827542797476381e-01
2.645157154684325551e-01
2.970881863732439676e-01
2.038289752712135472e-01
-3.997636950046877247e-01
6.308475255344755395e-01
1.377988657698737240e+00
-5.333841590452308434e-01
-7.624185919961040669e-02
-3.369737118954120869e-01
-1.940210510834130320e+00
-9.749279022419841123e-01
1.340198892168454892e+00
1.288742142808856794e+00
1.496075657976450035e+00
-1.670242309887531029e-01
2.383186983422606320e-01
1.909099452846475975e+00
6.995794140997385613e-01
8.495087663992270111e-01
-1.064749871129924141e+00
5.370755277024437113e-01
-5.584891706875829698e-01
-2.528080936897623587e+00
-5.114457611197579245e-01
7.400949473769363740e-01
9.481680737296277472e-01
-3.322402222831543628e-01
-4.136869352729866112e-01
5.494949381494127483e-01
7.178570159448259824e-01
6.545231611244656245e-01
5.128876159797564060e-01
-1.676453803193691083e+00
-1.152580472352386254e+00
3.664536063274124733e-01
-9.478448217309926038e-02
-1.161537698280620257e+00
2.325622787155731952e-01
-6.739770274763139390e-01
-6.836828450045092653e-01
2.259397228140306857e-01
-4.346520322764918509e-01
-1.257020029272994277e+00
-3.093330216061955795e-01
1.375501825533801181e+00
1.162843828033585103e+00
-1.333352084006631799e-01
6.015365975260585918e-01
-9.137505290153850046e-01
-3.583187123256840745e-01
1.826994656659828298e-01
-1.038139726996249790e+00
-3.684978301878448770e-01
-6.968583488145194682e-01
2.589715820631559584e-01
1.105168528457705079e+00
1.662910551770894418e+00
-3.767518671852813916e-02
6.760073655961391648e-01
8.865162489451412497e-01
1.754183405976119214e+00
1.308529413493376925e+00
-2.274003352809344028e-02
9.545239265264661155e-01
3.363377591662204402e-01
5.774218182909524044e-01
-1.896374977532718553e+00
1.094418841176343360e+00
1.485795019625520408e-01
-8.790816342087469648e-01
2.404482280110933623e-01
-5.516286878803738913e-01
1.121391754936408969e+00
-6.740915465027678133e-01
-5.314087825779219981e-02
1.444412642234067290e+00
3.366024992152675255e-01
2.883206908997595908e-01
7.062259525794776227e-01
9.395856690140977352e-02
-1.465842878113975400e-01
5.107089684398183893e-01
1.157882218293639021e+00
6.860581958087331733e-01
7.379457056542199078e-01
-4.786767143018155757e-01
-6.859228287644574262e-01
-5.237134476353146884e-01
2.564064807704609650e-01
7.168688581114288638e-01
-2.152786786078075276e-01
-1.562066231403615779e+00
5.926685562291299225e-02
-5.943027302544097168e-01
5.999840795460948950e-01
1.290905363052101906e+00
1.501419568615272926e+00
-8.407980518607292009e-01
5.312388851471221418e-01
-2.911476381595547447e-01
4.292155928741974713e-01
6.584869399634726284e-01
-1.521767346632336038e+00
7.415672430297173268e-01
2.454372336663001586e-01
6.327147007325402139e-01
1.341345147620670586e+00
1.380043112828495677e-01
9.458635383478189995e-01
-1.196321080531103365e-01
-2.499831091534412131e-01
3.078351390499445284e-01
-1.525981079193962364e-02
7.304564541289108037e-01
5.347658404301581792e-01
-5.125487725536078676e-01
7.405008170234270715e-01
-1.171502335356031432e+00
2.403395374311372845e-01
-6.879079407365521481e-01
-7.626309669552430170e-01
-7.217568322498271183e-01
9.286670721853507171e-02
-4.691204765034868718e-01
-1.455874321408814120e+00
-1.205078074261592302e+00
5.613433856850341686e-01
-1.404130182979279384e+00
-9.155652910159941538e-01
7.481161824119492154e-01
-4.310478446625815724e-02
2.379868704261983436e-01
-1.921656468812226182e-01
3.724016441149751722e-01
7.006505612132843952e-01
5.307720661351016389e-01
9.981120465010120402e-01
2.550292659650553739e-01
-7.247293729879532576e-01
-3.280367504907261145e-01
-6.221543353163642986e-02
-1.803802737705323678e-01
3.380818593074479961e-01
4.791437503413685239e-01
-1.239722113206286780e+00
-4.723767692502390259e-01
1.278378506393671898e+00
1.638667234967423392e+00
2.233565897624751606e-01
2.017438952024917853e+00
-1.101121182251233177e-01
-1.058148020797333722e+00
-1.780033695588291609e+00
-1.981990673676462811e-01
-3.318132083491660000e-01
1.269941832636820811e+00
5.763189249452653484e-02
1.065123722379936133e+00
-1.399269473682534182e+00
-4.604454352472617251e-01
2.445554500512906460e-01
-3.281130136249634788e-01
4.049261271436027099e-01
1.024445518150944423e+00
3.677919287281207206e-01
1.309375254544319356e+00
-3.609410729897177261e-01
-8.797842396242989693e-01
-3.491699201890151039e-01
-7.493236581715988220e-02
-1.303817381263077779e+00
-1.956797321756748587e-01
-1.349374776432567258e-01
-1.540287642331930495e+00
1.425638203377312951e+00
-8.529612682813285662e-01
3.738631400351156153e-01
-2.025037166654339305e-01
-1.899204494994289061e-01
-4.196300114099707490e-02
-6.422537928858492728e-01
-4.725887056000144248e-01
4.804768019959966829e-01
-1.066952830973856514e+00
3.041354824562994205e-02
3.378864092224103111e-01
2.314988336599322238e+00
-4.225784622015866798e-01
1.638622252997024908e+00
-1.041523596298124001e-02
-9.982490150938398976e-01
2.298777494465715221e-01
-2.461634327170039160e-01
-3.353201501353914038e-02
2.740035703203915318e+00
2.578533430985266994e-01
1.207430912258495859e+00
-1.426500483420271692e+00
-3.122187430964342703e-01
-5.462148412522551677e-01
1.097631565662515962e+00
-8.196664653991660998e-01
1.565710030750360748e-01
-9.637239070124826723e-01
5.964666437383611131e-01
-2.404228055027141653e-01
-5.244926582038960117e-01
4.886752363999170012e-01
-9.224749787914475474e-02
-1.070633588020011517e+00
-2.451289678065061428e-01
-8.078841399538865264e-01
8.535779197679600472e-01
3.834364523417382875e-01
1.492359486204636765e+00
7.756140133399737069e-01
3.799193209368415536e-01
-1.010969953198788351e+00
-8.599373807038634965e-01
1.042703405403844874e+00
-3.555206309832909528e-01
-2.097051224089569121e+00
-2.438919951322361168e+00
9.022051266870996233e-01
-1.661267034430881528e+00
1.218518484370562094e+00
3.860878993682097526e-01
3.348718960633392805e-01
-5.263496288143640900e-01
5.495707878408916391e-01
-8.582350304383717932e-01
-6.486246688737687949e-01
1.966105525904258133e-01
-5.368838394651147539e-01
2.899333321536091135e-01
-1.911375753609524164e+00
1.338594395658587732e+00
1.542494477729859481e+00
-5.193922790215601548e-01
-1.555768013564985397e+00
-3.053589567384588643e-01
8.762793035722536983e-01
-6.149513903914880508e-01
-7.819258747439793433e-01
-6.133420851420572362e-01
2.089867651245219005e+00
1.195121964402701131e+00
-7.398912888492142903e-01
-4.904694650016256374e-01
-1.079314077365835400e+00
-9.247330731151853778e-01
-5.694774273336026260e-01
-1.616473312240391258e-01
1.045949522486895988e+00
-8.696774360033691087e-01
2.324368452822252795e+00
-8.672313134925931088e-02
7.200793078107051159e-02
8.301434419015593091e-01
1.467346319174843705e+00
-6.112196418341466764e-01
-3.522701943949592129e-01
1.654901173286293492e+00
-7.944907830667888859e-01
5.795592957727048293e-03
-8.898406154070692686e-01
1.520281260609289919e+00
1.080421790993642217e+00
3.648682619888494738e-01
7.839708025424646509e-01
-1.800536023413902065e+00
1.592560072192958032e+00
4.266162880815954628e-01
5.918196832598111579e-01
-1.054355679610868429e-01
-1.418832720565778693e+00
1.526643956749919928e+00
2.380925979710566964e-01
1.826230075802648400e+00
4.682567167074320330e-02
1.893523766115888796e-01
-1.530063988224180216e+00
1.924836454415044473e+00
2.750690915074318066e-01
-1.097237028624456379e+00
-1.374914511885487967e+00
5.247575818984935303e-01
2.442278450322743488e-02
-7.583349750519109422e-01
-1.415457577167307912e+00
3.113954026630651184e-02
4.575105255415231054e-01
4.831511617597792352e-01
9.814091152072433877e-01
7.876082464107259096e-01
-2.415360741905448194e-01
-2.195735033367490097e+00
9.357467933825874828e-01
4.282795378632793248e-01
1.052490670283815044e+00
2.299110358944814192e-01
-9.840172895694826449e-01
-1.556735248046343667e+00
-1.127316496676528779e+00
4.835415240258985475e-02
4.393264318199220364e-01
1.032193407119819994e+00
-4.306344717454373416e-01
8.876101853937238273e-01
-3.449693181289001376e-01
6.336832311857855393e-02
-1.037018389858694212e+00
-5.692815404135961321e-01
-2.019697845779198087e+00
-2.818377883539153195e-01
-9.562510763413794024e-01
5.273516385395734529e-01
2.368500955298058486e+00
-2.582177449047914131e+00
-1.294390569331056728e-01
1.203534735952490387e+00
-2.249230323403399179e-01
-5.476570694096313252e-01
1.181645409766585386e+00
4.421138123977625400e-01
-2.231717156994387496e-01
-1.002971645260385181e+00
1.464998424254537746e-01
-2.802610125053834333e-01
-1.025946522394384150e-02
2.512436829654240977e-01
1.331686352697621700e+00
-3.807618815464326456e-01
8.594978499441576769e-01
1.098116894919382913e+00
2.423346401958689889e+00
-7.034839990660859410e-01
6.549419932442787085e-01
-4.104992095996278789e-01
2.896386218595617956e-01
2.979150912721709510e+00
1.578977489352087371e+00
4.680729867315361337e-02
-8.809074214434052807e-01
-1.522403731919615755e+00
2.231956595798530785e+00
-3.642116589156103035e-01
8.201860110879928278e-01
-4.189198024122827713e-01
-6.797948349660566381e-01
9.276059724118654870e-01
1.476030430031743723e+00
3.015551107808614462e-01
-8.851686937972896851e-01
9.704128109468002084e-01
4.431630682009858879e-01
-4.957700366013863547e-01
4.056175814931286538e-01
-7.510286982554252866e-01
-7.118858695820768911e-01
3.522619617256850799e-01
-4.823118152801398328e-01
-1.756002166578075840e+00
-3.355160197851628223e-01
-9.739895878785857775e-02
9.280746850296071049e-01
-1.309681311487265631e+00
2.110007530303290857e-01
7.233853426390149943e-01
6.201394336911827398e-01
-6.966764982452456900e-01
-2.918143965265281303e-01
6.123739883688972263e-01
1.279116072915926106e+00
-2.451761537825095871e+00
8.536595314137886137e-02
6.817011792520224489e-01
9.487735614650649740e-01
2.028353613176332448e-01
1.827056287734030865e-02
1.489660540954711232e+00
-3.683749669519989500e-01
-2.363251863555126953e-01
5.989321437230860079e-01
-1.298475418158970829e+00
-1.132781119534846670e-01
-1.862967089119599295e-01
-1.468394546864066896e+00
-2.755339556189949080e-01
-8.439310959991261352e-02
-1.728209814324147553e+00
-1.184395691118818705e+00
-4.957233812728216171e-01
1.026217311228375229e+00
2.281489892793775898e+00
-8.496277109223396851e-01
1.528166482368208956e-01
-1.456064500797840999e+00
4.292596112732185443e-01
-1.019720673029955033e-01
-3.669717925334595177e-01
-1.743853754773500464e+00
-1.113042208493014440e-01
2.982946370459199081e-01
4.008491987836809711e-01
-2.276539598677966292e-01
1.503928765908027820e+00
-2.191243789280367393e-01
1.038594084495852998e+00
-4.467518282647485739e-01
-6.301271098967241302e-02
-3.270987535086485876e-01
3.084361903599319166e-01
-1.877808723986271300e+00
-8.862045285576013454e-01
2.013409988876357082e-01
-5.661829576534536113e-01
-2.853934850810368462e-01
1.276562232674650355e-01
-8.205507204703716972e-01
2.050410416383046663e-01
-1.641589206151337355e-01
1.191424412350945428e+00
-5.606590040628363081e-01
-6.164172589025002091e-01
-4.127305348849078515e-01
1.461442950165756205e+00
-3.573406680689631409e-01
2.704789905668752992e-01
7.441877456258888524e-01
3.850355613552795819e-02
-7.969987842617659579e-01
1.117024084230089809e+00
5.039378248015051742e-01
-9.043954451952374018e-01
-1.488166142544883996e+00
1.433480157556122681e+00
1.786513277874802297e+00
-3.068405928179678277e-01
3.174688405582268835e-01
-1.008784020395478986e+00
1.459228474668100295e-01
-2.928429815995361313e-02
-7.610489604406361908e-01
1.783194640334768988e-01
5.307035985715612414e-01
-1.402925396474795638e-01
7.281628733920059160e-01
-8.710041342599419423e-01
5.586733472559964886e-01
7.718727519516422886e-01
2.217251448677225734e-01
5.937037531691282677e-01
2.212980870610500528e+00
-1.508391306875275450e+00
3.097539499696750909e-01
1.115140928482321270e+00
5.395985113742479689e-01
1.194306241668652957e+00
-3.932061991531101142e-01
4.007178160297062419e-01
1.617934949788276233e+00
1.235053729914148191e+00
-4.048582545225636875e-01
4.741346801521021392e-01
1.483225179588215203e+00
5.881001543462250902e-01
1.405163656147525142e+00
-9.163561010823227937e-01
8.860881980465699082e-01
-1.952450068134106154e+00
-5.761141629562793742e-01
7.623858336872322283e-01
1.925610728558847295e+00
-3.649037990925420027e-01
-4.835792866591383521e-01
7.043480063326555685e-02
-5.581128565047152046e-01
-1.885935165053525431e+00
1.608869566279402252e-01
8.744433315360485015e-02
7.562781792712640616e-01
-1.142535237350922550e+00
6.706965327784705222e-01
1.722856111922817179e+00
-7.111022071063534122e-01
-5.809023212458538366e-01
-1.617818120010011462e+00
-1.522387600187361523e+00
-3.177866826054771554e-01
-7.423668624522095083e-02
-4.533301855660648028e-01
7.696141707799887266e-01
-7.344468667422587860e-02
2.247319880784236501e-01
-7.047668167503026194e-03
-1.553156498174331802e-02
-1.637165794307619660e+00
-1.795921797911353091e+00
-3.779535339871226141e-01
-1.502426529843103209e+00
-2.979354125312984047e-01
8.237034621679829582e-01
9.484192973196735599e-01
7.448815357850800956e-01
8.468477798960269975e-01
-5.378354239795132274e-01
-4.603292902635968131e-01
6.335026926412842818e-02
-6.746163647393723650e-01
-1.291889425045852802e+00
-2.596556404215653521e-02
5.767998263479071630e-01
-2.303330385795266874e-02
8.240601511614145114e-01
-3.528398440983457895e-01
1.428925297153585516e+00
4.607167944459023695e-02
8.981195974557458148e-03
1.232041123452204845e+00
-1.431774124516979496e+00
4.947921892211596950e-01
2.384299357149052001e-01
7.171165525910687677e-01
-1.169690562155634384e+00
-7.539458430944693257e-01
8.443540490018848210e-01
-6.690981090197000158e-01
-5.368684257053282227e-01
9.798168943219519589e-01
1.300347939298523992e+00
8.518055719304348239e-01
4.161459264452587181e-01
-8.102357329245775119e-01
-8.688184014558021362e-01
-5.452832737912258754e-01
2.675064012878681230e-01
7.202599111385904473e-01
4.404258916845036897e-01
2.228523175200118958e-02
-1.357945525382959318e+00
2.707269241132146537e-02
-4.982521449547561848e-02
-5.796835768793915378e-01
-3.527492881804578650e-01
1.264932918556544106e+00
1.253023351417243525e+00
7.660240187198822217e-04
-1.847374415935366887e+00
-1.471847948703036701e-01
-1.112278755754843723e-01
-6.743946347234694993e-01
-1.248506082663790373e+00
-3.130665133270683076e-01
-7.362389809448262046e-01
-4.463042219886517725e-01
1.654276332860305232e-01
-8.251089053037098386e-01
-1.037345128161711649e+00
1.122549184400563282e+00
-6.908549710574938274e-01
5.672743220790275043e-01
-1.254889471157855985e+00
-5.809310944897809748e-01
-5.011274353758120581e-01
-1.840121697593464889e+00
-5.708736346404595929e-01
3.338983124787414103e-01
7.324090013374546793e-01
-6.438729321297066432e-01
1.087181966189325166e+00
3.579243420787823170e-04
-1.044044561695479878e+00
2.341925864227587806e-01
-6.939571385856067032e-01
2.678093026342235894e-01
-4.529564697600009238e-01
-4.729434150269574699e-01
6.769232874993343918e-01
-1.608139813738736490e-01
-2.304191063300243258e-01
1.123696834246252330e+00
1.274219324966792577e+00
-1.030971366701328717e+00
-8.464355005316309688e-01
-7.416761501966221415e-01
-8.228433059189784737e-01
1.016285558763233121e+00
8.817334549310927860e-01
-1.142297893623356320e+00
1.597882471038112873e-01
-2.591026438952008237e-01
1.710477875495099165e-01
-5.667067969088468438e-01
4.811861587359020920e-01
-1.177167620361757594e-01
-1.790712349253160696e+00
1.496119372844926909e+00
8.514891613562954875e-01
1.679547766398995987e-02
1.086490903575079603e+00
-2.056274985711993297e-01
-1.633469829308615007e-01
1.143508878535685946e+00
-1.549301059705756822e+00
4.893089594007933307e-01
1.917039038577031673e-01
-1.260161002988709811e+00
7.406414103607549260e-01
1.753956123647886223e+00
-2.897261554806083717e-01
-1.784052954857878737e-01
2.662501298060537813e-01
-7.555441376687400679e-01
8.080346409108799532e-01
7.482054854041471081e-01
1.907591269612752827e+00
1.194719765583796889e+00
-1.149785195008671712e+00
7.746126234068569094e-02
1.457035447812476070e+00
8.550349879324218305e-01
-7.865700950789872303e-01
-8.733302839133401108e-01
1.646807274658998455e-01
-1.008151276116697304e+00
6.278330068712884016e-01
7.068166914323158190e-02
2.180056041310043380e+00
-1.964131495134429639e-01
1.937850294954653441e+00
9.253429799858989835e-01
1.002772712932526789e+00
-1.009954971074088936e+00
2.796478813138616459e-01
-1.215098205056731162e+00
1.898972675469498439e+00
-1.022271235722621352e+00
-5.640536511164947475e-01
-1.675297246047377508e-01
-1.622217197669344468e+00
-1.157778979368587979e+00
-6.304774297630626467e-01
-5.714211679181021575e-01
5.998570725997458553e-01
-7.167765313719804965e-01
5.076594275742039031e-01
1.596760529160029252e-01
-4.260999944426648867e-01
-1.063204211115781783e+00
8.587638308945030330e-01
-8.626519535714839426e-01
2.016342954550653099e-01
3.930578377167655013e-01
1.287002866119550726e+00
-1.414610755686838584e+00
-2.897638646353076219e-01
-5.622790963402820585e-01
1.040885681725078615e-01
1.021323970737979314e+00
-1.208177328362821878e+00
8.255472186236448850e-01
1.560656691631096660e+00
-4.300500031049651617e-01
4.503916376934560817e-01
-8.822199381451095723e-01
2.809414643483645890e-01
1.902709627897596067e-01
-5.719477119193111525e-01
7.737115253161924722e-03
5.684236692299704519e-01
-2.614735248782405486e-01
-1.122820163267332472e+00
-7.365361414693379905e-01
-1.845022009521711137e+00
8.518355620328117439e-01
1.591941706465986650e+00
6.016203812072101753e-01
7.581660636436818868e-01
-1.769660106593397897e+00
1.531095638577882612e-01
-2.986225707522989214e-01
-6.119864171923566909e-01
-5.752717305934899050e-01
-3.333486340990022279e-01
-7.092914505137177805e-01
3.564794844465400958e-01
6.987804592718910301e-01
5.328724879068759135e-01
-1.576886941656894692e+00
-7.448242902731632142e-01
-5.781294201235521735e-01
-1.745437143500232713e+00
1.370419836562073931e-02
-1.616977611009375204e+00
3.906253655512790246e-01
7.320528449621462874e-01
-1.224929988953610493e+00
-9.028126684289309312e-01
5.756798401803427945e-01
4.058715474584063954e-02
-8.838815574986681467e-01
-2.104388286353233273e+00
-6.694175758030888046e-01
-3.843317132461340213e-01
-1.897459481919361091e+00
1.574461046790867069e+00
-1.444686533233594528e+00
3.491391727692565450e-01
-5.287563616543592415e-01
4.522101898397386521e-01
3.557804847085607736e-01
1.317143433868064983e+00
3.720013801887475102e-01
-1.714073720178998783e-01
-2.386888316403524557e-01
-9.870859701162866262e-01
2.185714026658607700e+00
-1.786583575631619514e-01
-7.279850243965459988e-01
-1.941759218540248577e+00
5.653425730536875554e-02
7.768493406656502565e-01
-7.056540547097562843e-01
6.708076612821847196e-01
-1.439208641252636145e+00
1.102819323372115967e+00
4.356329790186132533e-01
7.476967857754829305e-01
6.021151052510911317e-01
-2.168078623863789023e+00
1.038894968319926893e+00
-1.408575975051756135e+00
-6.628266049648895430e-01
1.967851828570619688e+00
2.094547270671371475e+00
-1.443980836449997973e+00
-1.172254789335755332e+00
-1.552427365834552653e+00
7.514324252110712310e-01
8.260451451050275784e-01
1.340887608354935923e+00
-4.628624566984847893e-02
-2.327600168011768389e+00
-5.601245264504222526e-02
3.589069569605175536e-01
-1.751489029593209956e+00
4.515901507573575890e-01
9.148139131149236603e-01
2.652887272325714640e-01
-2.238528485647269139e+00
1.564897991820340728e+00
1.389729177984644903e-01
1.617619492782726098e+00
-1.266088828803887179e+00
-7.778762800422244217e-01
5.226359918320591658e-02
9.721444611480215547e-01
6.230190449846066958e-01
-3.981880605177408050e-01
2.694678888900365887e-01
1.983170882398218038e-01
2.633762843580830459e+00
2.213249509700375928e+00
-1.489217223330459916e+00
-4.281837703259839811e-01
8.304731834646864597e-01
-1.123166045666413204e+00
-3.710897421387538420e-01
-3.251001463728152574e-01
-9.179245231219044232e-01
-4.980567570633432362e-01
-2.033995963421802444e-01
-1.232216382411067401e-01
1.099398289428197062e+00
-1.705009186597864712e+00
-7.174259250064276561e-01
1.503702896249207166e-01
1.429842291248191177e+00
3.244037544591388822e-01
8.448766099215678782e-01
-1.146020817961459271e+00
-2.142233063463286680e+00
1.376735634450086510e+00
-4.443101004853488023e-01
-1.043474829514144053e+00
2.892879739226879576e-01
-2.265752243504954577e-01
-5.892844245328415775e-01
-2.843871104418938534e-01
-9.805422722859966633e-01
6.705432843483356553e-01
-6.984735720740185005e-01
-9.365913245357566641e-01
-1.470236688419798154e+00
6.819732538659754040e-01
1.394132892119778866e+00
-1.081026871396963296e+00
7.783634304801476667e-01
-8.764577678775187231e-01
9.080428614909236140e-01
-8.826469877405873632e-01
3.201570914715508032e+00
-6.565978584257161632e-01
1.236234525191408418e+00
1.372362077406554137e+00
-4.413500748400757123e-01
1.032753790394143500e+00
4.066868768838082238e-01
-4.474625495856078827e-01
5.409728500250601813e-02
3.059053917462257743e-01
1.292289192202960291e-01
-1.191940280578755340e+00
2.380131360791582829e+00
5.353779199978799495e-03
-2.008629718093080281e-03
5.777192982426225809e-01
-4.175911407137122833e-01
-8.900007323596924591e-01
-6.274991894598637154e-01
-6.923901443650378740e-01
1.832526584055493180e+00
1.054841414318534509e+00
-7.716193309156204050e-01
-7.945061333854162022e-01
-4.409797767073931896e-01
-1.620220575702007726e-01
5.483218184881337720e-01
1.243019816873569550e+00
-3.391848398874162118e-01
2.340923324155983032e+00
2.362652865434304861e-01
1.437298743548347801e-01
3.177859106376403342e-01
9.406388961981121399e-01
2.536639276698345324e-01
-2.740260936765995581e+00
9.496521718857493521e-01
1.446412262253652603e+00
5.152713092175923437e-01
1.737209985132504464e+00
-8.693253698031888632e-01
1.135768088043601409e+00
7.081185603132782447e-01
-8.075994560515692422e-01
6.377562963660055040e-01
1.551766510926152476e+00
-1.806046943953300454e+00
1.696073934049164622e+00
2.064825544885922959e+00
1.960545846484057275e+00
-5.251280965018432223e-01
4.185061622060614606e-01
-8.910961785650368672e-01
-3.767498775281997170e-01
5.010571233613630993e-01
4.855731319576735983e-01
-6.885319297887336487e-02
7.326238009274553820e-01
1.547337624392524980e+00
-1.069855888427229784e+00
1.247548036494946277e+00
7.371201325186105269e-01
-1.339417364854820214e+00
1.313496565296247809e+00
-1.426141439099332997e+00
4.081207055007697315e-01
-1.348492287438025627e-01
8.424217883168343413e-01
-2.929071417825585555e-01
-1.462932966475349206e+00
1.218232442618197409e+00
1.864083169842662979e-01
-2.266063926887768698e+00
7.050830923736497446e-01
5.242097108042267917e-02
6.702382100308178492e-01
-1.396929273354220458e+00
-9.211933705843946552e-01
-7.004872251595999355e-01
-9.576396327832584765e-01
-4.155632182432191235e-01
-6.459282863495849902e-01
1.548983829466149986e+00
7.256921543727955504e-01
4.536550391742507071e-01
-5.107325610736900001e-02
-1.573304620318365377e-01
1.656373955721221203e-01
8.969998029734575773e-02
4.447422920352903097e-01
-6.181280435188780675e-01
4.036624251446485068e-01
-7.473517002462665149e-01
-1.949184340940314675e+00
7.237186970964097910e-01
2.058469225175188211e-01
-1.393098469028137554e-01
-2.311296585003970172e+00
-1.068696063187923699e-02
-7.988899606720223368e-01
1.623376025466813255e+00
-1.421290252197776605e+00
-8.318961559529503003e-01
-5.214066262523054940e-01
2.250034422672989587e-01
3.797313719116399144e-01
5.155685113900584371e-01
-1.675480788770150609e-01
-2.320511885546762583e-03
-1.731584597932527503e+00
-1.843673040597672452e+00
2.891214311699427664e-01
3.857251722264405935e-01
-3.991769988552981707e-01
6.418179070539630215e-01
-1.311736055708156989e+00
7.912961193520231529e-01
2.039496228557201363e+00
-2.045913312099393977e+00
1.734173932967684850e+00
-5.743779567857815183e-01
2.290159308578215480e+00
-1.520025400244907177e+00
-3.713768904687328454e-01
-7.042777766587077215e-01
1.544175155430697888e-01
5.245772661491363564e-01
6.483057195382879723e-01
-3.395372019687933340e-01
-4.638023584915863806e-02
-6.240425734378455269e-01
3.246411775699160202e-02
5.388266874198680695e-02
-4.484325006797985624e-01
3.938448257236729644e-01
-1.164613222579634177e+00
-1.090673884224056422e+00
-2.412244091493511433e-01
-1.152300805978024645e+00
8.075619542668811546e-01
1.090651720021198479e+00
-4.647129326161439922e-01
-5.704928012282472344e-02
-4.149609320584885519e-01
4.553305504582212948e-01
-6.969838069802373193e-01
-9.537360258452860506e-01
1.999868645509494058e+00
5.206449301210731573e-01
-9.313297072850704530e-03
9.408096050593425796e-02
6.785105004136263718e-01
3.628145246156217474e-01
7.876841560149956400e-01
-7.535772972087232402e-01
1.469283168388122729e-01
-8.311140057496527178e-02
1.137291128117249306e+00
9.923299840299713015e-01
3.918807258235638691e-01
1.961617107733775178e+00
1.039968996561685816e-01
8.596588401554651204e-01
-1.332175732172576454e+00
5.492812658030676864e-01
-1.795595688988041783e+00
6.408795378376661578e-01
3.120851183061466028e-01
-2.632211427600175124e-01
4.836260552730904383e-01
5.604095513495885861e-01
-7.292861756431876508e-01
5.210567703700427211e-01
-9.951960021285481683e-02
-8.753159711749755045e-01
1.956881136851742697e+00
5.478420732320253839e-01
-1.881237800064831378e-01
1.332185482782133057e-01
-3.491184700303384680e-01
-1.252733490408447781e-01
1.044719490306151993e-01
-7.917853213994945349e-01
1.353439728466289231e-02
-5.474272316506819669e-01
2.736863439148237154e-01
2.365417163398890743e+00
3.806868370670765667e-01
2.024949952007248921e-01
4.650457765837031632e-01
-9.256115996925956546e-01
-5.511834723376310974e-01
-2.327748974926223957e-01
-1.505944876251168907e+00
-4.555852028656783848e-01
8.796114195052580076e-01
1.054713953554911043e+00
-5.975392236046532801e-01
-1.459041833081776263e+00
1.269184227899670114e+00
-2.954762612432965119e-01
1.907957437647121113e+00
1.160543780007653680e+00
8.889086789497193664e-01
1.963013948894844596e+00
4.208282301522071611e-01
2.163900890474792060e+00
-3.382248594111003093e-01
-5.510045869140121726e-03
3.481325442189199815e-01
9.605081890632368724e-01
-5.616368832207385697e-01
-1.804363200670149991e+00
-2.323387967258962183e-01
-1.312432595500819588e+00
-2.691783321367472448e-01
1.578822269250927723e+00
-1.123876176673212074e-01
-4.970733152887907291e-01
-1.409565803897739888e+00
-8.292125537453283179e-01
-7.439670318504379987e-01
-8.414701459698958885e-01
-1.637293522665194401e-01
-2.800411271384281253e+00
-2.417114945878536814e-01
-5.132156569214083586e-01
1.096905826241389159e-01
8.073195360509530794e-01
1.652130897992027281e+00
1.172704997191867937e+00
-1.314511275098478871e+00
-3.912873257414825612e-01
1.202943630433232380e+00
7.043079296919707577e-01
7.015757068411183628e-01
6.544160924314522676e-01
-5.737086929600121454e-01
-1.169891612708443107e+00
-4.903651380406168214e-01
1.697724822762725738e+00
1.036428723327025292e-01
1.732811374835223350e-01
6.885290086842363877e-01
-5.498133582919105811e-01
1.630367679023076999e+00
-8.311251781983117759e-01
-2.456263504294839972e+00
-1.357450396509203960e+00
2.476683348887215030e-01
9.162279881190797948e-01
6.692386626004244166e-01
-4.300738710122460340e-01
1.003451747826766161e+00
-1.799179273839008331e-01
5.410628319913002304e-01
1.041202510203276255e+00
3.588889508333068523e-01
-2.340528720927205431e+00
2.678676060301454775e-01
1.059881960382761612e+00
-5.878232586794549519e-01
9.619277718841304781e-01
-4.329172909380650247e-01
5.383419830963912522e-01
7.954203682522851260e-01
1.059844821595318454e+00
-5.381080335593989572e-01
3.123367114942495956e-02
8.481578130633158352e-01
6.884686398984724010e-01
1.340636096307310510e+00
9.478708923098373429e-01
4.472182110149644507e-01
-1.300789300617681832e-01
-2.967664656133273127e-01
-1.260340518733641391e-01
-6.087359241286456335e-01
-1.123596136017070701e-01
-1.258762507562805055e+00
-7.058997137119409349e-01
-1.421737752043042313e+00
-2.123953488705827841e-01
-4.067360477756610804e-01
4.096174956129349787e-01
1.187723392751216245e-01
3.509213710024726707e-01
-1.737898388467939093e+00
2.436848178681818577e+00
-5.773241055823912227e-01
6.004773042678281936e-01
-1.339805962810003970e-01
-5.046820376208889236e-01
-1.091639763629299154e+00
3.911815321907206044e-01
-3.175580683261348680e-01
-3.828490454850513314e-01
-3.317768673618274322e-01
1.843286375877886130e-01
-6.152380728958002365e-01
-6.036622020879466033e-02
1.171355395390246912e+00
-8.619782693081726177e-02
3.159351343900995701e-01
-5.438361325558452308e-02
-1.842833959621303641e-01
-1.899015867497465759e+00
-2.699318131602512216e-01
-7.252522955685287709e-01
3.883338125748335701e-01
3.436163399848780609e-01
1.806738764786391949e+00
5.912881081256222693e-01
5.637918827865856519e-01
-5.216605378423384565e-01
-1.292130385792050973e+00
-7.625546412190282730e-01
-8.776088165339445135e-01
5.321721126506945287e-03
-6.081473079043343555e-01
1.435323019915390574e+00
2.162636864842067963e-01
7.503356425172549304e-01
1.418221950259409336e+00
-4.412220699036734639e-01
-3.638713547308469742e-02
-1.421295311847695642e+00
-3.865789037566144115e-01
-1.413498582677928050e+00
-1.312698971520911972e-01
-1.805490490170849727e+00
5.664329750979624212e-01
-7.208087403871161758e-01
-7.055573846536764560e-01
-1.747276004574918939e+00
8.814966589468736791e-01
7.260786392564947400e-01
-1.840606040541532262e-01
2.885746014428618514e-02
-1.178141211478618722e+00
-1.257906624344363733e+00
-1.821046916142884164e+00
1.772946516630567348e+00
-1.053221261073150755e-01
-9.293933044479302241e-01
-1.700007821187524470e+00
-5.439918840523903787e-02
3.286343076212570047e-01
2.263986690375015265e-01
1.731029220543943259e+00
-4.431150387355575204e-01
1.085374103114830735e+00
2.100926119940116799e+00
-2.191189660098755432e-01
-1.104713045137315719e+00
5.667280817976243223e-02
1.082202994692093689e+00
1.705477886288821798e+00
-9.736491253473201768e-01
-3.604490604055969431e-03
2.030983726114508892e-01
5.042876294996546660e-01
-1.386709077072249885e+00
5.539344644195267620e-01
9.295623641129042991e-02
6.237181456195166618e-01
1.559866022897621773e+00
-9.614661589001612940e-01
-1.267826769951641452e+00
7.477907217743250401e-01
-5.462637244474382037e-01
-5.133961493759711114e-01
4.237319822932532620e-01
-7.523892189993741132e-03
-4.834831013853269077e-01
-9.083684673573555468e-01
-4.649668498046209408e-01
4.628783715702420865e-01
-1.827465065622893292e-01
-9.839632619128696467e-01
7.414842064150934942e-01
2.261805438728749618e+00
-5.561616943258376189e-01
-4.247075055619768391e-01
-1.966392705548241526e+00
1.613057073247165518e-01
-1.105856861548333292e+00
4.041547065366977165e-01
1.954492852099093847e+00
-2.098480050019196075e-01
1.654710844199301034e+00
1.324533221268927807e+00
7.682113574604300110e-01
-1.568706359964672448e+00
1.158190212490930682e+00
7.127850846030785170e-02
-1.506871094766397412e-01
4.417721265253772844e-01
-1.030906698790469839e-01
8.518306563490365413e-01
2.795236691714948485e+00
1.104114529628320712e-01
1.927420152618684934e+00
3.381828174110906859e-01
-4.370536261504914255e-01
-1.047784991229908425e+00
-4.054638899810689145e-01
5.431476032862834202e-01
-1.449009694262442194e+00
-1.113859469698029958e+00
2.450112567303185662e-01
-2.257747254347309163e+00
-1.669935328146064268e+00
-1.351865353153864691e+00
-6.033226265685215362e-01
-4.161229388807558549e-01
1.686499278720833939e+00
3.676562299076644447e-01
-3.471550685270953784e-01
-9.106451343454616265e-02
-7.222800027685625235e-01
1.191216460767283047e+00
1.472998280075942468e+00
-1.978409072121357637e-01
-2.895036812469568233e+00
-1.179530161042003256e+00
-6.011613498164071201e-01
-9.613627085598333011e-01
1.132967496465957513e+00
-1.065050516346359943e+00
2.780858957759161920e-01
-2.027697801995222093e+00
6.344467065831058683e-01
-2.832380761120021351e-01
-2.489579329098324731e-02
1.061141279119821312e-01
3.952567677412952007e-02
-1.078108611099988901e+00
2.454486437157341328e-01
2.582646160945473723e-01
-6.560092472768840333e-01
6.484084732830605047e-01
-4.494854451608401025e-01
-2.133185402731318792e-01
2.282509669018166210e-01
-4.182402497252191154e-01
2.821735071202662384e-02
-1.325592131495608950e+00
2.531534351113464698e+00
8.558165941644901853e-01
1.666630445152547768e+00
-1.133204105252038491e-01
8.094613581967845528e-01
7.402340457023178777e-01
2.623333450205243556e-01
-2.859870208858804830e+00
2.629195260414911028e-01
1.607562721500487957e+00
4.719536208326356452e-01
-5.984488973458114147e-01
-1.608132636126184956e+00
-1.128935683708016446e+00
3.223120223535642093e-01
1.192536943684760820e+00
1.032400107101936415e+00
-9.707633301184804830e-01
-9.111264812302075633e-01
1.696090460510683684e+00
-1.450596243032334032e+00
2.588202243606705810e+00
2.132376858310352397e+00
-1.266753462843404954e+00
8.112304156586407355e-01
1.187778328630557434e+00
5.659359173550011501e-01
-3.387931989887931206e-01
-6.029614367369677819e-01
-1.766956894840674641e+00
-8.183902488957128796e-01
4.909317637537398138e-01
-1.017532106477344378e+00
6.309144835348776681e-01
-3.190789855678611286e-01
9.944538119001175014e-01
-3.018041181054222477e+00
8.635257861680347702e-01
1.291650642630688184e+00
-5.198871875526172026e-01
6.518652230681494242e-01
-1.142330315771240695e-01
-4.576308688836373539e-01
8.982526045105885260e-01
-2.280246886746424284e-01
9.681218125086089588e-01
-1.081557788506913725e-01
4.103593156443213208e-01
1.058558370169557117e+00
8.738605391609730599e-01
-9.491273375595570272e-01
9.570443660526410934e-01
6.772132282145604254e-01
-2.632267268672407456e-01
1.504045529145553728e-01
-2.828772790982409524e-01
-5.487219926203888987e-01
-1.596698429852823065e+00
-1.595441630914616438e+00
-5.991296651508123405e-01
-3.137353537329846120e-01
5.181296002211496221e-01
-1.350241360579999481e-02
-5.551995332233511382e-01
1.409441653676492212e+00
6.521350226397268912e-01
-9.780625608237697444e-01
1.921482828177228264e+00
2.503478480778014603e+00
-1.654700767777752990e+00
1.538121923339044184e+00
7.613792161271580872e-01
7.196940854600920590e-01
3.112077052602547564e-02
1.099597365730422771e+00
5.849313204999159188e-01
-1.267801311191055547e+00
3.488759526214277873e-01
-1.584842411084858904e+00
8.122252249680425029e-01
6.883904778472984543e-01
-1.406352686495193904e-01
4.331064326158944877e-01
-1.211905439818032892e+00
1.475364807106596787e+00
-3.599340505094483222e-01
1.375314484952880334e-01
1.591395016621718783e+00
2.491829924354223846e-01
8.175918773867912881e-01
-3.942282560601503838e-01
-1.799579970048544864e-01
-2.119119746668377324e+00
-1.396901543305534510e+00
-7.590951172576117234e-02
1.730697738971473110e-01
2.555756218659089793e-02
1.671801325147840855e-01
-1.503833606098963216e+00
1.200886657376965955e-01
9.352818718897666361e-01
-2.473456008088836203e-03
7.799769275156038795e-01
2.933863194157595000e+00
4.454590180201742355e-01
4.194392396135526169e-01
1.341596214593872682e+00
1.200106370769935094e+00
-1.951148207817569591e-01
3.415756296201278297e-01
8.883121855631087582e-01
8.571620400866365452e-01
-5.553645298018641263e-01
1.035249538256802104e+00
1.221810810210996578e+00
2.054685536643774846e+00
-3.108630477938142955e-01
-1.200725755902644298e+00
6.877576175238789835e-01
-1.666781562125961569e-01
-5.592112622304014069e-01
6.846401350650729301e-01
4.875025003211636010e-02
2.887544500813423246e-02
-1.261165131962097563e-01
-3.746068610757077866e-01
-4.886034232847088349e-02
-4.213749592137103761e-01
1.100958162445113270e-01
-5.148747228637646778e-01
5.348369828945165327e-01
-1.399641375709569369e+00
5.267277966223825603e-01
1.628303183517743946e+00
7.090149520393995708e-01
-7.142976978898911700e-01
-1.819390558427243398e+00
-1.427471362948853906e-01
1.190831308439036645e-01
1.035119571590021437e+00
4.682542391367927603e-01
-2.933178866424234199e-01
7.079006679150446901e-01
9.614029073746368503e-01
2.796210438586673730e-01
2.297993945995359111e-01
8.063778575143155658e-01
1.679199771825574006e+00
3.760381498024564784e-01
-4.957406114235848316e-01
-4.838760417831013960e-01
3.569442045825154119e-01
-1.401760888099504720e-01
-4.154636535328359304e-01
1.209590270747499030e+00
8.092074134303068877e-01
4.664157484669518294e-01
7.773683759918537106e-01
-1.478149652443927931e+00
-1.852837898000134986e+00
-3.061490323908014344e-01
-4.164406777326438158e-01
7.362075082383355840e-01
2.500925193285100878e+00
4.544515540386995789e-01
5.874406295120885302e-01
9.707882512715920731e-01
-6.759902010917321347e-01
1.246252408727907657e+00
-1.103807601401844002e-02
2.207266325280403674e+00
7.281341590198229241e-01
9.235576746740530307e-01
1.884220896955941749e+00
2.758375838394833135e-01
1.493756881142221271e+00
-4.049688443252260628e-01
1.177255639680405697e+00
1.137443463409280486e+00
6.865413288631934119e-01
-1.008135592897518418e+00
-2.553928980014920358e-03
-4.975472247609195042e-01
1.020106787010957694e+00
-4.144427063777716969e-02
3.494893717948798217e-01
1.004831130139693801e-01
-4.039742353563483546e-01
4.918910056147243193e-01
-1.063915440545590618e+00
-4.300554548765028184e-01
6.191637019205553649e-01
4.898153233093047731e-01
1.134722218541653616e-01
-4.326761391956583380e-01
-9.264067988327769065e-02
1.106679010588237810e+00
-7.505930241564815475e-01
-6.612115501431534703e-01
-8.105517534029297311e-01
1.773555713706052028e+00
8.208167212174715122e-01
-1.842147350535881190e+00
4.412733786767868982e-01
1.777060177058578383e-01
1.591401296512849228e+00
-1.367333477631736294e+00
-1.011904100952434549e+00
2.424729109855947140e+00
1.427281576633005589e+00
-1.129946412881688289e+00
8.348800806100228344e-01
-1.387579792063413198e+00
-1.702883220548325194e-01
1.143330783561922637e+00
6.926082892757837728e-01
-1.084229393850429379e-01
-9.242250702229992676e-01
2.348643296272390657e+00
-3.313531145535310585e-01
8.646286858936932385e-01
-9.108848097517500131e-01
-2.612044228829137893e-01
-2.251950643270394237e-01
6.804499635057015272e-02
9.413594729136706696e-02
1.186440561032165997e+00
8.149085439658479979e-01
-1.219875596950875885e+00
9.514557900995098683e-01
-1.458633368297786725e-01
3.547095024870608460e-02
-1.083819746204609746e+00
1.217435756997676588e+00
6.224296912997967501e-01
-2.659581106028509279e+00
4.276799728900035347e-01
7.604813290691337935e-01
7.877914442020969021e-01
1.000883574825896405e+00
-1.195381474760118135e+00
-1.058214245922518781e+00
1.480822858644956552e+00
-1.226358735267310873e+00
9.793064424767385090e-02
1.527919672351771396e+00
4.157748977017941550e-01
-8.929511562588254847e-01
-2.348717323797713252e-01
-2.554897402002520579e+00
1.153149565939054710e+00
5.949171066165493960e-01
-8.075432040593899519e-01
-1.137487588221793189e+00
1.463305628594906871e+00
-7.736243541457842321e-01
-6.158578476447426064e-01
-5.875810757545971673e-03
-8.130476350593974777e-01
-1.051506202003245738e+00
1.088429006285549505e+00
3.663066945399034768e+00
3.730383048786344302e-01
7.983367896265981811e-02
3.332298571792468578e-01
4.333850712877945210e-01
-1.239485375299045566e+00
1.889790008853142522e+00
7.293303791163804339e-01
-8.253222284214478677e-01
-5.180399582826530347e-01
2.008875423453655440e+00
-7.224262428490689780e-01
8.944599948653743082e-01
1.164963135806936778e+00
4.993757145741010706e-01
-5.470569359552469868e-02
-8.327247119084841831e-01
1.036065252911525292e+00
-9.769208343242612169e-02
-1.509109034742775135e+00
-2.158703165546803360e-01
7.959805992641882932e-01
-1.362367830216327513e-01
7.867843271286650841e-01
1.216945346768193215e+00
-9.702208318508276363e-01
1.660470621247791545e-01
-2.822217002269594932e+00
1.710418766813423530e-01
-4.445794062735803354e-01
5.810000444000927855e-01
1.987793180243074387e+00
1.608493712342611737e+00
-1.292950360190250558e+00
9.195277084865925987e-01
2.103477893068822713e+00
-8.119700592928061345e-03
8.993966235274754306e-02
9.488911282944696435e-01
2.176760875486396241e-01
-2.421589703878104238e+00
-1.139029090948871642e-01
-1.684029387331832106e-01
-5.229364504901631294e-01
-2.751246991560954980e-01
-1.934009187195841584e+00
1.296699378053913110e+00
1.330498620803232557e+00
-8.221235978288713442e-01
-8.045993931837465141e-01
-1.246878659188722205e+00
2.654317116887087713e-01
3.118293208240000558e-01
3.931549118749776972e-01
-1.173489817422549875e+00
4.687861731579569535e-01
1.334052855220714540e-01
9.290839134935487131e-02
-1.017542581944621327e+00
1.486629258760911565e+00
2.637382159151311356e+00
-2.337646567328881098e+00
-1.600235888480232349e+00
-1.189288959413371538e+00
2.829462192286200106e-01
-7.098612297493397394e-01
1.415410920141994877e+00
3.537433926562832398e-01
1.387253158639966566e+00
4.018891325070256815e-01
2.150598008138705775e-01
-1.433801898447221834e+00
-7.908842743485050564e-02
-2.398406929229607076e+00
-5.188270007022559582e-01
8.359679829638337611e-02
1.788264902988277172e-01
-3.927941652660316141e-01
-4.874755773158768180e-01
6.438122439914446132e-03
1.540941772225787432e+00
1.264510673749739966e-01
4.189377377191924601e-01
-2.946233024667328504e-01
9.529555997340273255e-01
1.850713954076562917e+00
8.777922634841465177e-01
-2.553447759489484992e-01
-1.373714106343637553e+00
3.784874035408091197e-01
-8.350116389295955122e-01
-2.392913662603348701e+00
-1.565866447975177156e-01
-1.215164937834085412e+00
-7.280859593531642249e-01
2.417569674511821642e-01
-5.289510302008564313e-01
4.544296430256790642e-01
-2.079143785112319787e+00
3.551239159574461346e-01
-4.288826703342480534e-03
-1.884671115201764779e+00
-4.672180464326649435e-02
-1.799978302449844747e-01
-2.922570651229288607e+00
-1.077633518582622241e+00
-1.820143859975463574e+00
-9.288558974293389392e-01
-8.841316620165449169e-01
4.733229123745600897e-01
-1.198240405537654540e+00
9.051065231261998800e-01
-1.375068482600908748e+00
-1.510311905621880113e+00
2.459194592584907080e-01
1.329563194452931141e+00
4.977191763528048263e-01
1.129583185961705594e+00
2.402360275168975434e+00
-1.058282309834107232e-01
5.247640092041560012e-01
1.311849333067892087e-01
6.349931535785957593e-01
-6.484021096319624311e-01
4.948903624623059438e-01
-2.747301640435227954e-01
9.922142899399573057e-01
-1.209106980323972458e+00
-7.512744340891742700e-01
1.499554129327906660e+00
-1.551958101478249086e+00
-3.397196632271157202e-01
-2.184588026051196841e-01
-1.638079214027482911e+00
5.203489781061620967e-01
2.130401121794889274e+00
1.740831248954047838e-01
3.194369377049803282e-01
5.690333855124876106e-01
1.467666299356471082e+00
1.287917137227751807e+00
4.639131997090264470e-01
-5.414045039683612615e-01
-3.143651235349043671e-01
-1.184066810078772791e+00
-9.417299004820378627e-02
9.054375885056334394e-02
8.743145929652409443e-01
1.983542955948614794e-01
-1.359240440552127449e+00
-7.655211510465134150e-01
-5.042223630113577826e-02
-5.576922806785835629e-01
-7.682383504700976973e-01
-2.144229814680208346e+00
7.754187880409926237e-01
6.372980433705585090e-01
-5.908164595357020543e-01
9.121487922892485001e-01
-1.007599058674663484e+00
1.662085228706194018e+00
-1.748088041466557274e-01
3.227843914530016955e-01
6.633462057523887845e-01
1.377276284225557035e+00
-6.567920068795078947e-01
-2.327145405085217167e+00
-2.676988937691993531e+00
-4.321839020522482144e-01
-4.252319030749537321e-01
1.090344246978796283e+00
-2.897341978882582714e-01
2.470683686612617780e-01
-2.529528369512686892e-01
-9.702053905562021408e-01
-1.218393562691584942e+00
7.150182229252423360e-02
-1.292745228673715552e+00
-1.197481032927115940e+00
-8.434940253393287124e-01
-2.078997226689585087e-01
-6.725334567625628202e-01
-1.752550795783819337e+00
1.873993593903812593e+00
2.715451335600929106e-01
1.858768467461171386e-02
-8.898482158421007204e-01
-4.517415798639978219e-01
-9.787046333149544974e-01
1.227910027303604767e+00
3.506531310715999550e-01
3.295057557353636146e-01
8.127288586418167649e-01
-1.628472522493249031e+00
7.190351114752596695e-01
-2.475605385571088835e-01
9.399177851726013833e-01
4.375826588360460789e-01
8.756243179068338156e-01
4.078293393847258752e-01
1.429816365331493921e+00
1.170129641067114479e+00
2.014696141946266561e+00
3.085034212156599343e-01
-9.847417593305521910e-01
1.589793146004946645e-01
1.171351873008208866e+00
4.427994457827009178e-01
7.005310095053070285e-02
2.422667664908743357e-01
-6.891275421544912350e-01
7.966309557123392449e-02
4.511201654148138673e-01
-6.648241019877729717e-03
-4.987241917205305630e-01
3.563630217506207898e-01
-9.466645102328326011e-01
-1.582857556605984595e+00
-6.055512678655505798e-01
1.705026541229454906e-01
-1.206918006218974382e+00
-5.370731102532234624e-01
-8.395418921711332860e-01
-1.663882364454774665e+00
3.591538774168270276e-01
-1.310650241621313050e+00
-8.439352091711610493e-01
1.229836361272446110e+00
-8.307691752779426952e-01
1.969197139802062013e+00
1.532320647729196850e+00
-5.340547430982836019e-01
-1.099461047297162652e+00
-3.668281224095306658e-01
-1.447535193766059658e-01
1.722318234536339143e-01
9.768791733775425978e-01
9.385836317752703772e-01
-4.562099863161528379e-01
-1.663044897527854449e+00
1.380727281976726006e+00
-1.719621672338468743e+00
-1.011097631249588957e+00
1.198000819050204724e+00
-4.178610807758317280e-01
1.067635215675799554e+00
7.745065268108773660e-02
2.814689981032781896e-01
-8.615016269869282817e-02
9.134169552033938322e-01
-5.449359002442470956e-01
1.094243662456275246e+00
-6.589888060189998953e-01
-9.363627284227681313e-01
-2.065249426862526771e+00
1.954826395027805253e-01
-8.478060062210003300e-01
3.408171916184938310e-01
-2.148418254023058416e-01
1.289288724835315481e-01
1.278299929621334430e+00
1.855515111517018201e-01
1.638213430148101279e+00
-5.549394001499378115e-01
1.165838922316980053e+00
5.032813618690914481e-01
-1.812543979172304698e-01
-1.508873874038314522e-01
-1.068622762846660024e+00
4.517028993155913219e-01
-2.542339488516813795e-01
-1.650964777676088013e-01
-2.550298648247020239e-01
1.516483580940155118e+00
-1.985953722719245196e+00
-7.580611138994097775e-01
8.588363848775127929e-01
1.928712363549964504e-01
-7.954449452563054912e-01
9.634400507653655410e-01
5.304311896015659888e-01
1.591964253263107310e+00
-9.241791032785292570e-01
-7.310947929616277152e-01
1.223046600136396433e+00
-4.168068766084827015e-01
1.858079306298330291e-01
1.755258779549750403e-01
-1.407537232358754720e+00
5.983363063222794098e-01
-1.887029268400946647e+00
1.031372405812290394e+00
1.128503783210806910e-01
6.941266927625146244e-02
-1.652138045218775608e-01
-9.318511785284488980e-01
-2.033033486583991412e+00
-1.626835908319298474e+00
1.892596408693716148e+00
1.296936901345375537e+00
9.329061827250959560e-01
-2.125690230557942262e-01
-6.187266013242107565e-01
8.793992179788071573e-01
8.599153467624490732e-01
1.296530420080939550e+00
9.768580020782156870e-02
-7.369487541403779707e-01
-1.355588818049836553e+00
-6.208085011603069470e-01
1.231643132510701122e+00
-7.759349536071038500e-01
2.187607216797767817e-01
-3.605395352592140057e-01
-4.502725204682504478e-01
8.240870448124888448e-01
-1.995020195401770557e+00
-1.547185978380119176e+00
-4.611550231233413899e-01
-1.688063470629156404e+00
4.823016438685433921e-02
-2.469513909117787287e-01
7.557481616532384372e-01
1.288266532363252059e+00
1.640933754397779998e+00
-1.902178203295734393e+00
6.392189366190834665e-01
3.531996407060247201e-01
-2.204196430587646305e-01
-5.644591898120805418e-01
-1.456411115109310650e+00
2.754404138417213765e+00
-2.367423174998323887e+00
1.595729882818058276e-01
-6.446410360382034410e-01
9.171722467797248646e-01
-5.088911476148698654e-01
4.468791342822215906e-01
5.795267581511948096e-01
-1.160050910547986591e+00
-5.637303587954672901e-01
-1.631756404158662618e-02
-7.606841029636430829e-01
-6.844090650318653823e-01
-2.487624348786861839e-01
-5.695902803324031094e-01
-1.678088113801116665e-01
-9.857845164579751573e-01
-1.875557010327911112e+00
-1.070703836090571626e+00
5.480068345122931506e-01
-4.240116708077896202e-01
-6.131156175144840681e-01
1.918600059615064968e+00
1.028940025993803742e+00
-7.505139894875609841e-01
-1.618650257378482671e+00
7.919536381045250151e-01
-1.168951268615074257e+00
3.947583922168678150e-01
-3.174600277397364168e-01
4.801027035845906177e-01
-1.035961717194430060e-01
-1.394243496844717267e+00
-2.042938046271757901e+00
6.928719789216838398e-01
3.178868712423017773e-02
1.506549627916055067e+00
-7.472369717855376070e-01
2.406610245793547320e-01
2.713349524979347116e-01
-5.589647074532492210e-01
6.365900779810239329e-02
-1.582010442636041958e+00
-3.290027905417435283e-01
-1.259763908837455260e+00
-2.382342460833561493e+00
1.126001698243411120e+00
-3.214728407607288924e-02
-9.039451435221763642e-01
1.349617226533948111e+00
1.223336956436856582e+00
-5.678570092560107918e-01
1.134991607395197111e+00
-7.470561051994119017e-01
-7.987563439404762322e-01
-5.673434340810611376e-01
7.549217488036026324e-01
-8.713010943334171809e-01
-6.848268760757674212e-01
7.888846438119397897e-01
1.522073969979859775e+00
-3.346471583202278999e-01
-2.319994885675434049e-01
1.887001910930362070e-01
-8.881595845751278917e-01
-1.078151682317770366e+00
-1.398547842441264066e+00
1.838086462685373901e+00
4.506992536884345535e-01
1.338623882334504245e+00
8.645135467441149579e-01
-9.886408693053996277e-01
2.823519758020657036e-02
1.425952120576960525e+00
5.281164253885383131e-01
-9.747043268045563202e-02
6.279936055118537919e-01
-6.977091174014435904e-01
-6.661118959090711611e-01
5.645154805379949403e-01
2.611869396824028078e-01
9.605245105792830085e-01
5.879290068065285979e-01
-1.586829726426537635e+00
-5.060957124770472104e-01
-6.284157957124202332e-01
-1.024211405812678777e+00
1.116432538557273313e+00
-1.609634705511772346e+00
1.834755368727380431e-01
9.423786350214607976e-01
1.350281228999969274e+00
-1.266326247348892098e+00
5.329150175372227016e-01
-1.218516211914693059e+00
1.623292670579334684e+00
-1.332257181394389534e+00
3.500202337508817041e-01
-6.849801340727523780e-01
-1.772852019670761559e+00
-7.096802644812335581e-01
-7.943127411233071866e-01
-9.061988315545360662e-01
3.800145609895426713e-01
1.274125054375562449e+00
-1.625673271654677274e-02
1.040232946495974087e+00
-7.359642431046236055e-01
-4.784263601676728705e-01
-2.059396522666748108e+00
-1.273934689959317801e+00
1.057892075278118016e+00
6.732359954967090943e-01
-1.628678856402055786e+00
-6.414773820660706338e-01
-3.162573204754763889e-01
3.528069498139292381e-01
7.862823294565511878e-01
-2.614022585687922340e-01
1.198585524491352139e+00
-1.183675282129690975e+00
9.355452928210422625e-01
-3.631824066235712911e-02
-2.163117525649630168e-01
-7.665412310388811656e-01
-1.851791754088372155e+00
-6.637216902563656262e-01
2.655822389597042865e-01
-2.734040265797450520e-01
6.235698708395001622e-02
9.308521918774571580e-01
1.058820448176398976e+00
4.722762075668395787e-01
-7.299237743873097754e-03
-1.142342670818486727e+00
1.007076868433277594e+00
-1.541131675694790371e+00
8.924429738041620430e-01
1.383496492148572898e-01
-7.512915184620894138e-01
2.474588701174683936e-01
-1.572156269482178015e+00
-2.572177386266434773e+00
1.329862695037872244e+00
-3.610114031482601349e-01
-4.071682918829968023e-01
-1.046757473489682705e-01
-4.192862481614593184e-01
-2.699783187835825826e-01
-6.385199773324513883e-02
-7.763132777212690128e-01
-1.353661589162524326e+00
3.083599462244915879e-01
-5.121262359452307678e-01
-2.307067438921748814e-01
1.209496187003386680e+00
-1.145764466143222471e+00
1.441737520887093948e+00
-2.476746238215119522e-01
-3.206950322710199197e-01
4.323443243703417593e-01
3.054530441300745344e-02
-1.194217251233986143e+00
-9.339239707857709405e-01
-9.833639017607018751e-01
8.528439521329566064e-01
2.696533051351768240e-02
2.268123297577561981e-01
1.177669400774580932e+00
1.401639342978151070e+00
-9.228960750941649083e-02
3.103843822601536351e-01
-1.159053033047137582e+00
3.647593635574901128e-01
-2.233267493887831912e-01
-1.443060605326580148e-01
1.160260090021469237e+00
1.170935664825815348e+00
-7.237967663071268598e-01
1.890473073107940660e+00
-2.144260168138015787e-01
-1.594792324632677172e+00
3.447132047628862495e-01
-1.337538631998887118e+00
-6.536115006358684809e-01
-9.394304167454368137e-01
-2.048661296160262935e-01
-1.095670422853701309e+00
1.193167609703757182e-01
6.766339583878363539e-01
1.067699611731102616e+00
9.374353112951034905e-01
-9.100385976280439548e-01
1.336335091929490848e-01
-8.839111393605953992e-01
-1.048997004148966461e+00
1.579089055953411536e-01
3.964675232979448793e-01
-4.375275555340983336e-01
8.655660298667179342e-01
-1.680182124755472683e+00
-6.881153510320311417e-01
-7.984352121252136225e-01
3.182302259598869809e-01
-1.518028819819775332e+00
-1.446122202409652280e+00
1.268446035819232598e-01
-8.503218059318633504e-01
1.258973657266621249e+00
-5.948099602065595182e-01
-2.209311530237743959e+00
8.109902727091172769e-01
2.837548583007145631e-01
-9.755631211077517850e-01
2.024401785566374290e-01
1.684477967023373657e-01
2.943082296950265131e-01
-1.164346736778459679e+00
-1.308030781327398806e+00
-1.700574721839734238e+00
4.484027856387200472e-01
-1.064221202543037981e+00
-8.624420571013402537e-01
1.636874408274330950e+00
-4.632591380920514368e-01
-2.147070504759475591e-03
1.411765481927196086e+00
-8.454036115745350299e-01
-1.198307522178765350e+00
-5.376401662598155884e-01
-9.000897565026255709e-01
-1.585437706724017515e+00
1.089990234254867740e+00
-8.507689346189915014e-01
-1.630885357113248890e+00
1.291086446750828287e+00
1.067801754222700739e+00
3.658879559607658427e-01
2.231141354857663295e+00
-1.253923814961690697e+00
-8.510043982572940147e-01
8.049455562352421101e-01
-4.363555676885307877e-01
-7.293211490345175019e-01
-1.707175861105021175e+00
-1.029477836156496240e+00
-2.085743388306001922e+00
1.664320477625733374e-01
-9.914863770533124399e-01
5.322749760392159191e-01
-1.306555785864503383e+00
1.384648641720776396e+00
1.090535461343521417e+00
2.321990899379628548e+00
2.471339097402595331e-01
1.143689664043581411e+00
2.329262232091785789e-01
8.299691025472534234e-01
2.160174581665253724e-01
-1.368274451832472427e-01
3.170002972599087476e-01
8.181695991642109478e-01
1.217425129759161173e+00
8.467444229796151911e-02
-1.296071141007101746e+00
-8.798018785114319895e-01
9.550934327379010380e-01
-8.365260467266435462e-01
1.640935527135529148e-01
1.948993968488303419e-01
9.544682963767908701e-01
-6.904011300977429544e-01
-8.054519549401072398e-01
-1.942147759337641055e+00
7.337296158332962115e-01
-2.496139058174998704e-01
1.667603495437703032e+00
-7.232984586760007883e-02
1.063874704436113205e+00
-1.677312829646099068e+00
-2.864379078565518211e-01
3.782971383597417137e-01
-1.009390238276660190e+00
2.803346182668261299e+00
-2.637939475959421021e-01
5.559414989564868126e-01
-1.218314019896902467e+00
-1.870580761917245871e+00
3.189995552819905322e-01
9.181392913960708668e-01
8.016460451189293401e-01
4.015428605899712955e-01
-1.915215890726763126e+00
-1.413176586790999334e+00
-2.775812375146310962e-01
-8.515283215248246051e-01
1.699914994781732136e-01
-4.737160160292617772e-01
-5.658671821424837711e-01
-1.601244734507975886e+00
6.702318328618365184e-01
-3.178695691176694482e-01
-1.719578914823511662e+00
5.696836574400000464e-01
-3.465076567320377610e-01
7.138775463135548227e-01
1.963891079563650777e-01
8.315256453879912302e-01
1.075499076997964987e-01
-1.244681357250707388e+00
1.071672930161168935e+00
-5.761358824428651770e-01
-1.047001530675726599e-01
-4.080199426434161225e-01
1.796652466200395759e-01
7.128357004488717896e-01
1.779499344402527994e+00
-8.756554566370905457e-01
-5.448682189130875653e-01
-1.685604120518963800e+00
5.011314292763431322e-01
-7.935755982553736043e-01
6.958563520196372476e-01
-6.008508220027839464e-01
1.247804903250961273e+00
1.160677559270010706e+00
1.856116034163223238e-01
-1.581317823014781743e+00
1.487569884312231139e+00
2.495128905013740128e-01
2.354041890341258103e+00
-5.364023533891498774e-01
4.928530845329847643e-01
-2.601076544478273078e+00
-8.117265660088532897e-01
7.791455685668794429e-01
-6.288857038407054123e-01
-1.079741703266752367e-01
1.588906056131573319e+00
-8.521327983077695012e-02
1.390000336393844016e-01
4.437363735117861863e-01
-1.132053814743989362e+00
-1.475555401976002434e+00
9.591700079304295024e-01
-1.376631392140089893e+00
1.067510353299294223e+00
2.279904330437239612e-01
1.307479501287081680e+00
2.822778003619102472e-01
1.507770415158490085e+00
-3.152093457212398753e-01
1.271903526815085783e-01
-1.599441326741241898e-01
-7.746318702624288566e-02
-2.891851839659194123e-01
-1.622639951095138366e+00
4.881281917754858313e-01
-4.695558594075318615e-01
-3.536898994228716148e-02
-6.900526358918221970e-01
6.695688404565764973e-01
-1.366806022694195821e+00
-1.492375314285426136e+00
4.191793090203551619e-01
-2.540940433119053932e+00
7.138056042076238450e-01
2.537026213477879821e-01
-7.362396158534487700e-01
-1.469130134276659172e+00
-2.874603454210632458e-01
9.939968977048675713e-02
3.116665227479005651e+00
-1.306399126074180073e+00
-1.097144533258552546e+00
1.902592601834939723e+00
4.114020735608859280e-01
3.402020883788566263e-01
-1.102286551828792094e+00
5.064183435207965100e-01
5.711217657915005352e-01
-2.531230108520557409e-01
5.320941694580563208e-01
2.849307546596158702e-01
-9.914209933586559664e-01
-1.893621732099945720e-01
-1.983439993444586769e+00
2.591501430027881026e-01
-1.624215659169801373e+00
-1.167589853508037123e+00
-1.329184007798029366e-01
4.298174983532569993e-01
1.467764241251704682e+00
4.419889215417729250e-02
3.228020153132771797e-01
6.579079845374479207e-01
-7.258194553314381015e-01
2.445808501216632624e+00
-3.498099195323760568e-01
-4.935588580992051333e-01
-1.170587480893497068e+00
1.524654293024528817e+00
-2.983432193894007267e-01
-6.133621898929373373e-01
-1.327682229447967044e-01
1.073696854931029260e-01
-1.367057110903365782e-03
-1.210805758780330033e+00
-9.163174543447445419e-01
1.445105978822714743e+00
-2.784977247359742836e-01
6.650173777181042079e-01
-1.215490966678834245e-01
-1.826977840365269223e+00
5.289209992835782748e-01
-2.322431590384509636e+00
-5.906855357788209915e-01
8.143476507093054817e-01
1.196453966630867116e+00
3.311120487806609725e-01
4.282657666376674110e-01
-3.159947529862278115e-02
7.964968235455235357e-01
-2.817088819625140905e-01
1.131695624845229675e+00
-1.752989901902340941e-03
1.000093203707396405e+00
3.498083685049641622e-01
-1.116060671047212960e+00
3.005386573664777794e-01
-4.094776395997967722e-01
7.977520082016654746e-01
-7.180638297107028167e-02
1.601608426344767466e-01
6.533551536523939385e-01
-6.676637628600087249e-01
8.360567723138795371e-01
-7.800895914072221160e-01
2.597342947838538474e-01
-5.201916441287128823e-01
7.286391103945326353e-02
8.701458726073835193e-01
-4.354410725938032134e-01
-2.092027864902825385e-01
2.065519394804799513e-01
-4.868045174744015657e-01
-3.976003902361114895e-01
-1.383871634998418143e+00
-6.230624780581884847e-01
1.926657996106348802e+00
5.163267379607192620e-01
1.812709678869290464e+00
1.584551832601565513e+00
-2.265370340489677725e-01
2.114278361821651797e-01
-1.435041890737825510e+00
7.845615135332627554e-01
1.557626557091915442e+00
-6.532865918089789115e-02
-4.847616147783838370e-02
-4.978434640648337073e-01
-2.315928353035838327e+00
-1.431767027428786643e-01
-6.080219391231878046e-01
4.229761741976989509e-02
9.608025261923308635e-01
6.542418808830782195e-01
-2.040474574680074316e+00
2.203319537730411004e-01
1.509520875107621896e+00
-6.644466074881836271e-01
3.904059696864412565e-01
-6.160710631785637492e-01
-4.969446256640382420e-01
-1.086902646225656799e+00
3.791902959461546652e-01
-3.600649478732160791e-01
1.542720108316118603e-02
-8.738653966443629129e-01
-5.570467752117084226e-01
-9.235232807583497738e-01
-7.789236583709315820e-01
-2.054375990669750518e+00
-1.361140255062941451e-01
8.378884926379919218e-01
-1.181373897175613141e+00
9.270679553255975480e-02
-1.585546599674816814e+00
-1.268593351268569203e+00
1.194106181345552797e-01
-2.015667193916070854e+00
-1.118716634087030704e+00
-1.658572733269864763e+00
7.415762803495103972e-01
-4.664197364595855100e-01
3.371034359614574205e-01
-1.198364369203918756e+00
1.376970660000297331e+00
-2.093879628228584033e-01
-7.645004204842835716e-01
-1.326292354850280297e+00
1.244255117732993021e+00
3.488651831183892105e-01
3.416725254587867355e-01
9.691101289290783294e-01
2.079441808588566032e-01
-6.031729047890536100e-01
9.568724033798136075e-01
8.895728060613401489e-01
1.263866272564889481e+00
-1.110709852639273576e+00
-1.172702048413877263e+00
8.031056718052911325e-01
7.360976344083824952e-01
-8.608061200099735855e-01
-2.068325302573648550e+00
-7.817423065686721628e-01
-1.661890939596088801e+00
-7.996371579468605217e-01
-5.221495027647305998e-01
5.439204653318507887e-02
-2.864033635745719120e-01
5.453484752543934500e-01
-8.391990979690721053e-01
-9.753010752862848465e-01
6.928250177659127651e-01
1.417972489754875109e-01
7.952434292153816031e-01
-6.822866514524998927e-01
-1.174149520267578684e+00
1.603744063325023950e+00
-5.784665694238926292e-01
-1.466007856797565623e+00
6.449981401348638954e-01
1.432556049644034823e+00
5.407792053243531960e-01
3.873034194733677715e-01
1.171369635581834545e-01
2.830269839272739896e-01
-8.115535183544665410e-01
-1.525296932481285672e-01
-2.121650632782679846e+00
-8.677377610954174481e-01
-1.016604007487569961e+00
-6.927965966247262575e-01
-8.946896205831639248e-02
-9.595182944662951074e-01
2.185471176572158836e+00
2.619696827586791343e+00
-5.986479569969596071e-01
-5.393852798489628779e-03
-7.322121271011350352e-01
-2.550035774923170573e-01
-1.443174441930166196e-01
6.151197312044777432e-02
-7.812412060133504532e-01
1.399368361933353677e+00
-8.747343507262532736e-01
-5.011508349417599373e-01
3.650790953627411906e-01
4.083312531814676238e-01
-7.871378172680126850e-01
-4.654236587937943259e-01
-1.034389016753460178e+00
-2.460694960818178567e-01
1.825415476788016633e+00
-2.547331139893727059e+00
-1.014316590084456182e+00
2.185839737801818436e-02
1.213372352002068055e+00
6.311869244763261833e-01
8.538026929768304241e-01
6.777960851377164975e-01
-4.993998940657775054e-01
-1.861702780263553292e+00
-5.475670433884932686e-01
-2.585049460159971613e-01
3.103712640205098516e-01
3.626121606176717083e-01
3.759808743317740731e-01
5.535397104877720631e-01
4.191963249205919451e-01
9.249666460491985376e-01
8.638271608562995141e-01
3.847415273679344883e-01
-1.368168896424432290e+00
-1.807986719916713447e+00
-1.194979305440504902e+00
5.756800755517379464e-01
-1.150228604046877656e+00
-7.275908955930362465e-01
-1.516038328212785169e+00
1.102471326974368004e+00
2.531463780618791737e-01
-3.527264111681104874e-01
8.971428846128735035e-01
1.212544675055583943e+00
4.979261557696192386e-01
2.632030398472574584e-01
-9.489987514061298812e-01
2.040130892354885817e-01
1.216546538016828771e+00
-4.603347688949111505e-01
6.524670197862879606e-01
1.323140122749152381e+00
-8.138585872158596857e-01
-3.913714410130358368e-01
-4.263885088631870213e-01
4.125268163761147688e-01
-8.484113489007667763e-02
-3.878154226698199425e-01
-1.077255947855388918e+00
3.338479842973756107e-01
4.776556242686785247e-01
-3.008923351858734385e-01
-1.304189500917806832e+00
-6.275216336178378596e-01
-8.727381306805214178e-01
-2.622564419398337732e-01
-3.353792794352833395e-01
-9.709053785827193028e-01
-6.153350870941843437e-02
2.002482184029218959e-01
6.007753958569918007e-01
-1.444470553214569186e+00
1.695270908457578773e+00
2.543073876334615013e-01
-5.157092661798809985e-01
3.621324679588349138e-01
-6.512660114257886601e-01
6.429579750343001887e-01
-3.275944483812734953e-01
-2.456680844560311383e-01
-1.761823058755353610e+00
-5.342025826583222115e-01
1.162758961358291820e+00
3.977694440346524196e-01
7.403692813832052355e-01
-1.480536615811433032e-01
6.067081124987431240e-01
3.486513683822383691e-01
-1.787079493388345902e-02
1.422217381585742402e+00
2.252922259044222164e-01
-3.996568805817454217e-01
1.205201807090211519e+00
1.690470525870118035e+00
1.345859021373227549e+00
-4.284621909932455064e-01
4.845569767832581531e-01
-2.618253372225540221e-01
1.657341937603910506e-02
-4.758832751943659622e-01
-1.385316776147671736e-01
4.271679513691643143e-02
2.054006637237647759e+00
2.403040578732997368e+00
-8.193837861192097005e-01
8.157066999762986326e-01
4.837253547433156275e-01
-6.984252184023954646e-01
9.405771457080593922e-01
-1.127969040124381817e+00
-5.997664066954803141e-01
9.155412657755773731e-01
-7.372730221410597751e-02
-5.628679360604353921e-01
7.765970886287631991e-01
8.158082853918535715e-01
1.047986350784167575e+00
-2.295783974386953474e-01
9.557615514270834112e-01
1.106070579547550281e+00
-1.111779949604394968e+00
3.911747097437054399e-01
-6.268625767503684110e-02
3.786593413382720374e+00
5.554273088718708618e-01
1.062266976536993646e+00
-1.382915430101519627e+00
-4.567078812911520291e-01
-7.911200055573627266e-01
2.353356564537884277e-01
9.046289549851668221e-01
5.700377938868829153e-01
1.092117949022906043e+00
1.427581591135698158e-01
-1.597326937002918265e-02
-1.239575924493810710e+00
9.548749274182094515e-01
-9.452013940353134469e-01
3.695069932960677872e-01
-1.090225232927573701e-01
1.157805744724073049e+00
-9.220768837237153237e-01
-2.370140370565013976e-01
5.122666480812811812e-02
5.601235715151464678e-01
-1.442177142694454961e+00
2.692546619844968236e-01
-2.394005013680699512e-01
-1.021147458783758344e+00
1.451682920393112086e+00
4.726852449449615579e-01
1.280319435158156771e-01
1.320385833570646872e+00
1.485721080185679499e+00
9.174908530802939888e-01
6.958911263364819799e-01
-6.763737778568970072e-01
-9.210169371062381094e-01
-3.363075555298616209e-02
8.409470066509769914e-01
6.866516476479724851e-01
1.517964262355641081e+00
5.829883479430286730e-01
3.937614546291151596e-01
1.937192747506966795e+00
3.403229829915602189e-01
1.014000144673156356e+00
-4.685355178219725580e-01
3.057430630353012435e-01
-1.084304514439898171e+00
3.685047016930627084e-01
1.400170944531478279e+00
-1.989167642030289507e-01
2.594374678518820421e-01
9.242994923544958219e-01
-1.609521416867972121e+00
-5.272928587537939471e-01
-9.908590589721569808e-01
-4.892159561537791357e-02
-1.021958790321898292e+00
-2.520781017491843107e-02
-1.061039237119614453e+00
1.137122664617668644e+00
1.998767763324774960e-01
1.325950620704737570e+00
-8.115863644449041736e-01
1.238690994711693305e+00
-3.835331330984038667e-01
-8.132572202210012202e-01
6.905281179367019906e-01
-5.007020433085280775e-01
-1.181935374012868412e+00
-1.079347769929243084e+00
-8.867240916190621824e-01
-4.543363412524169531e-01
1.381266207669016977e+00
3.448688855747379933e-01
-3.679556881421729431e-01
2.043072385174569572e+00
1.256448050524820725e-01
4.150900372874866129e-01
-2.256436450065901766e+00
-1.387209025136175722e+00
7.249785428401899212e-01
-9.918257438956170624e-01
-6.601270693887654195e-01
-4.790702904082876357e-01
-9.351628341544422629e-02
-6.691240230354009166e-02
-3.643719421739297637e-01
-1.174002146477427067e+00
-4.957831904042057092e-01
-1.216709999705692491e+00
1.034744640644243319e+00
5.157432886477923972e-01
4.941848672513947660e-01
-1.836042636484335411e+00
3.026644635425513319e-01
-1.297423878447962753e-01
1.886684814755604345e+00
8.641907140331686055e-01
-4.068046866550072971e-01
-3.071891692695804532e-01
-4.316454780317010576e-01
2.657909128016968103e-01
6.563842422257746279e-01
1.105139103754467111e+00
7.541303289318253278e-02
5.441001458971689297e-01
5.487259157832486967e-01
-1.062639472285165754e+00
-4.892866746405011291e-01
9.539420407154499681e-01
-9.960914537883813757e-01
4.199897130945988155e-01
-1.245851351924056383e+00
-1.499977300805286795e+00
1.285540986522075713e+00
-1.009486200768963560e+00
-5.407511280473460413e-01
-8.622125496576354964e-01
1.273944117653804942e-01
-7.667266629223680185e-01
1.490756860419845786e+00
3.576193034235524704e-01
-2.818278459923106105e+00
-1.087145046263202908e-01
1.340396827062792839e+00
-1.354304643026866817e+00
-1.038145965199382292e+00
-2.714303890424561994e-01
5.531096059084642524e-01
2.759272112257902254e-01
-8.852527862358889887e-01
-3.692434330636188977e-01
9.714687357253679600e-01
-2.573958385495880297e+00
-1.788678573111852410e+00
-3.785748735026238099e-01
-1.011873422445145554e+00
2.126482589489980257e-01
-8.664388496317269039e-01
3.953150088290257602e-01
1.748329263197976324e+00
-1.347166619579210634e-01
-2.868877425782785928e-01
5.119050412358199242e-01
-1.130993990311307096e+00
-7.349664093455286762e-02
9.154223022474119453e-01
-1.022223939632392442e+00
1.383054366534745561e-01
-1.628613053143956879e-01
4.126478746406713194e-01
1.658992892423997834e+00
1.376286118401852943e-01
-8.829330963620192207e-01
4.045533756155852423e-01
1.520710091976438805e-01
4.922648911650187586e-01
9.637782322857246786e-01
-1.000892058647526506e+00
-4.662700271132236840e-01
5.207807973229841014e-01
1.095862195662611338e+00
1.160577944915677007e+00
-3.073461589024637508e-01
8.360939855451569036e-01
